digraph Tree {
0 [label="X[49] <= 2201.0000\ngini = 0.451624521503\nsamples = 5295", shape="box"] ;
1 [label="X[12] <= 734.5000\ngini = 0.499571389096\nsamples = 2425", shape="box"] ;
0 -> 1 ;
2 [label="X[2] <= 39.4500\ngini = 0.446906956005\nsamples = 1160", shape="box"] ;
1 -> 2 ;
3 [label="X[51] <= 268.5000\ngini = 0.21617564271\nsamples = 219", shape="box"] ;
2 -> 3 ;
4 [label="X[3] <= 147.0000\ngini = 0.497777777778\nsamples = 15", shape="box"] ;
3 -> 4 ;
5 [label="gini = 0.0000\nsamples = 5\nvalue = [ 5.  0.]", shape="box"] ;
4 -> 5 ;
6 [label="X[54] <= 27.7100\ngini = 0.32\nsamples = 10", shape="box"] ;
4 -> 6 ;
7 [label="gini = 0.0000\nsamples = 1\nvalue = [ 1.  0.]", shape="box"] ;
6 -> 7 ;
8 [label="X[12] <= 716.5000\ngini = 0.197530864198\nsamples = 9", shape="box"] ;
6 -> 8 ;
9 [label="gini = 0.0000\nsamples = 7\nvalue = [ 0.  7.]", shape="box"] ;
8 -> 9 ;
10 [label="gini = 0.5000\nsamples = 2\nvalue = [ 1.  1.]", shape="box"] ;
8 -> 10 ;
11 [label="X[77] <= 268.5000\ngini = 0.168925413303\nsamples = 204", shape="box"] ;
3 -> 11 ;
12 [label="X[70] <= 74.7550\ngini = 0.125640956804\nsamples = 193", shape="box"] ;
11 -> 12 ;
13 [label="X[34] <= 35.3700\ngini = 0.0940103852192\nsamples = 182", shape="box"] ;
12 -> 13 ;
14 [label="X[48] <= 68.4900\ngini = 0.444444444444\nsamples = 12", shape="box"] ;
13 -> 14 ;
15 [label="gini = 0.0000\nsamples = 5\nvalue = [ 5.  0.]", shape="box"] ;
14 -> 15 ;
16 [label="X[47] <= 631.0000\ngini = 0.489795918367\nsamples = 7", shape="box"] ;
14 -> 16 ;
17 [label="gini = 0.0000\nsamples = 3\nvalue = [ 0.  3.]", shape="box"] ;
16 -> 17 ;
18 [label="X[62] <= 40.7300\ngini = 0.375\nsamples = 4", shape="box"] ;
16 -> 18 ;
19 [label="gini = 0.5000\nsamples = 2\nvalue = [ 1.  1.]", shape="box"] ;
18 -> 19 ;
20 [label="gini = 0.0000\nsamples = 2\nvalue = [ 2.  0.]", shape="box"] ;
18 -> 20 ;
21 [label="X[51] <= 290.0000\ngini = 0.0570934256055\nsamples = 170", shape="box"] ;
13 -> 21 ;
22 [label="X[8] <= 70.9100\ngini = 0.277777777778\nsamples = 12", shape="box"] ;
21 -> 22 ;
23 [label="X[33] <= 1265.0000\ngini = 0.165289256198\nsamples = 11", shape="box"] ;
22 -> 23 ;
24 [label="gini = 0.0000\nsamples = 9\nvalue = [ 9.  0.]", shape="box"] ;
23 -> 24 ;
25 [label="gini = 0.5000\nsamples = 2\nvalue = [ 1.  1.]", shape="box"] ;
23 -> 25 ;
26 [label="gini = 0.0000\nsamples = 1\nvalue = [ 0.  1.]", shape="box"] ;
22 -> 26 ;
27 [label="X[77] <= 235.0000\ngini = 0.0372536452492\nsamples = 158", shape="box"] ;
21 -> 27 ;
28 [label="gini = 0.0000\nsamples = 125\nvalue = [ 125.    0.]", shape="box"] ;
27 -> 28 ;
29 [label="X[77] <= 238.0000\ngini = 0.165289256198\nsamples = 33", shape="box"] ;
27 -> 29 ;
30 [label="X[4] <= 556.0000\ngini = 0.444444444444\nsamples = 3", shape="box"] ;
29 -> 30 ;
31 [label="gini = 0.0000\nsamples = 1\nvalue = [ 1.  0.]", shape="box"] ;
30 -> 31 ;
32 [label="gini = 0.0000\nsamples = 2\nvalue = [ 0.  2.]", shape="box"] ;
30 -> 32 ;
33 [label="X[72] <= 800.0000\ngini = 0.0644444444444\nsamples = 30", shape="box"] ;
29 -> 33 ;
34 [label="gini = 0.0000\nsamples = 27\nvalue = [ 27.   0.]", shape="box"] ;
33 -> 34 ;
35 [label="X[0] <= 623.0000\ngini = 0.444444444444\nsamples = 3", shape="box"] ;
33 -> 35 ;
36 [label="gini = 0.0000\nsamples = 1\nvalue = [ 0.  1.]", shape="box"] ;
35 -> 36 ;
37 [label="gini = 0.0000\nsamples = 2\nvalue = [ 2.  0.]", shape="box"] ;
35 -> 37 ;
38 [label="X[7] <= 677.5000\ngini = 0.462809917355\nsamples = 11", shape="box"] ;
12 -> 38 ;
39 [label="gini = 0.0000\nsamples = 7\nvalue = [ 7.  0.]", shape="box"] ;
38 -> 39 ;
40 [label="gini = 0.0000\nsamples = 4\nvalue = [ 0.  4.]", shape="box"] ;
38 -> 40 ;
41 [label="X[22] <= 44.4250\ngini = 0.495867768595\nsamples = 11", shape="box"] ;
11 -> 41 ;
42 [label="gini = 0.0000\nsamples = 4\nvalue = [ 0.  4.]", shape="box"] ;
41 -> 42 ;
43 [label="X[0] <= 673.5000\ngini = 0.408163265306\nsamples = 7", shape="box"] ;
41 -> 43 ;
44 [label="gini = 0.0000\nsamples = 4\nvalue = [ 4.  0.]", shape="box"] ;
43 -> 44 ;
45 [label="X[57] <= 185.5000\ngini = 0.444444444444\nsamples = 3", shape="box"] ;
43 -> 45 ;
46 [label="gini = 0.0000\nsamples = 1\nvalue = [ 1.  0.]", shape="box"] ;
45 -> 46 ;
47 [label="gini = 0.0000\nsamples = 2\nvalue = [ 0.  2.]", shape="box"] ;
45 -> 47 ;
48 [label="X[42] <= 42.2750\ngini = 0.474381720218\nsamples = 941", shape="box"] ;
2 -> 48 ;
49 [label="X[62] <= 43.5000\ngini = 0.499019621193\nsamples = 542", shape="box"] ;
48 -> 49 ;
50 [label="X[36] <= 451.0000\ngini = 0.43875\nsamples = 200", shape="box"] ;
49 -> 50 ;
51 [label="X[34] <= 34.9050\ngini = 0.353668368718\nsamples = 122", shape="box"] ;
50 -> 51 ;
52 [label="X[1] <= 1748.5000\ngini = 0.202448979592\nsamples = 70", shape="box"] ;
51 -> 52 ;
53 [label="X[55] <= 311.5000\ngini = 0.118921642731\nsamples = 63", shape="box"] ;
52 -> 53 ;
54 [label="gini = 0.0000\nsamples = 1\nvalue = [ 0.  1.]", shape="box"] ;
53 -> 54 ;
55 [label="X[61] <= 1493.5000\ngini = 0.0920915712799\nsamples = 62", shape="box"] ;
53 -> 55 ;
56 [label="X[16] <= 420.5000\ngini = 0.408163265306\nsamples = 7", shape="box"] ;
55 -> 56 ;
57 [label="gini = 0.0000\nsamples = 2\nvalue = [ 0.  2.]", shape="box"] ;
56 -> 57 ;
58 [label="gini = 0.0000\nsamples = 5\nvalue = [ 5.  0.]", shape="box"] ;
56 -> 58 ;
59 [label="X[55] <= 400.0000\ngini = 0.0357024793388\nsamples = 55", shape="box"] ;
55 -> 59 ;
60 [label="gini = 0.0000\nsamples = 53\nvalue = [ 53.   0.]", shape="box"] ;
59 -> 60 ;
61 [label="X[10] <= 61.1200\ngini = 0.5\nsamples = 2", shape="box"] ;
59 -> 61 ;
62 [label="gini = 0.0000\nsamples = 1\nvalue = [ 1.  0.]", shape="box"] ;
61 -> 62 ;
63 [label="gini = 0.0000\nsamples = 1\nvalue = [ 0.  1.]", shape="box"] ;
61 -> 63 ;
64 [label="X[74] <= 33.4200\ngini = 0.489795918367\nsamples = 7", shape="box"] ;
52 -> 64 ;
65 [label="gini = 0.0000\nsamples = 3\nvalue = [ 0.  3.]", shape="box"] ;
64 -> 65 ;
66 [label="X[67] <= 682.5000\ngini = 0.375\nsamples = 4", shape="box"] ;
64 -> 66 ;
67 [label="gini = 0.0000\nsamples = 3\nvalue = [ 3.  0.]", shape="box"] ;
66 -> 67 ;
68 [label="gini = 0.0000\nsamples = 1\nvalue = [ 0.  1.]", shape="box"] ;
66 -> 68 ;
69 [label="X[76] <= 458.5000\ngini = 0.473372781065\nsamples = 52", shape="box"] ;
51 -> 69 ;
70 [label="X[49] <= 1831.5000\ngini = 0.499671268902\nsamples = 39", shape="box"] ;
69 -> 70 ;
71 [label="gini = 0.0000\nsamples = 7\nvalue = [ 0.  7.]", shape="box"] ;
70 -> 71 ;
72 [label="X[8] <= 63.4250\ngini = 0.482421875\nsamples = 32", shape="box"] ;
70 -> 72 ;
73 [label="X[73] <= 1172.5000\ngini = 0.277777777778\nsamples = 6", shape="box"] ;
72 -> 73 ;
74 [label="gini = 0.0000\nsamples = 5\nvalue = [ 0.  5.]", shape="box"] ;
73 -> 74 ;
75 [label="gini = 0.0000\nsamples = 1\nvalue = [ 1.  0.]", shape="box"] ;
73 -> 75 ;
76 [label="X[65] <= 36.8250\ngini = 0.426035502959\nsamples = 26", shape="box"] ;
72 -> 76 ;
77 [label="X[2] <= 42.6300\ngini = 0.375\nsamples = 24", shape="box"] ;
76 -> 77 ;
78 [label="X[4] <= 490.0000\ngini = 0.265927977839\nsamples = 19", shape="box"] ;
77 -> 78 ;
79 [label="X[46] <= 431.0000\ngini = 0.489795918367\nsamples = 7", shape="box"] ;
78 -> 79 ;
80 [label="gini = 0.0000\nsamples = 3\nvalue = [ 3.  0.]", shape="box"] ;
79 -> 80 ;
81 [label="X[2] <= 40.4100\ngini = 0.375\nsamples = 4", shape="box"] ;
79 -> 81 ;
82 [label="gini = 0.5000\nsamples = 2\nvalue = [ 1.  1.]", shape="box"] ;
81 -> 82 ;
83 [label="gini = 0.0000\nsamples = 2\nvalue = [ 0.  2.]", shape="box"] ;
81 -> 83 ;
84 [label="gini = 0.0000\nsamples = 12\nvalue = [ 12.   0.]", shape="box"] ;
78 -> 84 ;
85 [label="X[51] <= 368.0000\ngini = 0.48\nsamples = 5", shape="box"] ;
77 -> 85 ;
86 [label="gini = 0.0000\nsamples = 2\nvalue = [ 2.  0.]", shape="box"] ;
85 -> 86 ;
87 [label="gini = 0.0000\nsamples = 3\nvalue = [ 0.  3.]", shape="box"] ;
85 -> 87 ;
88 [label="gini = 0.0000\nsamples = 2\nvalue = [ 0.  2.]", shape="box"] ;
76 -> 88 ;
89 [label="gini = 0.0000\nsamples = 13\nvalue = [ 13.   0.]", shape="box"] ;
69 -> 89 ;
90 [label="X[35] <= 455.0000\ngini = 0.498685075608\nsamples = 78", shape="box"] ;
50 -> 90 ;
91 [label="X[12] <= 702.0000\ngini = 0.494542214302\nsamples = 67", shape="box"] ;
90 -> 91 ;
92 [label="X[58] <= 138.0000\ngini = 0.475907198096\nsamples = 41", shape="box"] ;
91 -> 92 ;
93 [label="X[27] <= 640.5000\ngini = 0.424382716049\nsamples = 36", shape="box"] ;
92 -> 93 ;
94 [label="X[46] <= 397.5000\ngini = 0.462809917355\nsamples = 11", shape="box"] ;
93 -> 94 ;
95 [label="gini = 0.0000\nsamples = 5\nvalue = [ 0.  5.]", shape="box"] ;
94 -> 95 ;
96 [label="X[60] <= 760.0000\ngini = 0.444444444444\nsamples = 6", shape="box"] ;
94 -> 96 ;
97 [label="gini = 0.0000\nsamples = 4\nvalue = [ 4.  0.]", shape="box"] ;
96 -> 97 ;
98 [label="gini = 0.0000\nsamples = 2\nvalue = [ 0.  2.]", shape="box"] ;
96 -> 98 ;
99 [label="X[43] <= 178.5000\ngini = 0.2688\nsamples = 25", shape="box"] ;
93 -> 99 ;
100 [label="gini = 0.0000\nsamples = 17\nvalue = [ 17.   0.]", shape="box"] ;
99 -> 100 ;
101 [label="X[78] <= 122.5000\ngini = 0.5\nsamples = 8", shape="box"] ;
99 -> 101 ;
102 [label="X[12] <= 647.5000\ngini = 0.444444444444\nsamples = 6", shape="box"] ;
101 -> 102 ;
103 [label="gini = 0.0000\nsamples = 2\nvalue = [ 2.  0.]", shape="box"] ;
102 -> 103 ;
104 [label="gini = 0.0000\nsamples = 4\nvalue = [ 0.  4.]", shape="box"] ;
102 -> 104 ;
105 [label="gini = 0.0000\nsamples = 2\nvalue = [ 2.  0.]", shape="box"] ;
101 -> 105 ;
106 [label="gini = 0.0000\nsamples = 5\nvalue = [ 0.  5.]", shape="box"] ;
92 -> 106 ;
107 [label="X[48] <= 69.3400\ngini = 0.310650887574\nsamples = 26", shape="box"] ;
91 -> 107 ;
108 [label="X[51] <= 427.0000\ngini = 0.1171875\nsamples = 16", shape="box"] ;
107 -> 108 ;
109 [label="gini = 0.0000\nsamples = 14\nvalue = [  0.  14.]", shape="box"] ;
108 -> 109 ;
110 [label="X[4] <= 526.0000\ngini = 0.5\nsamples = 2", shape="box"] ;
108 -> 110 ;
111 [label="gini = 0.0000\nsamples = 1\nvalue = [ 1.  0.]", shape="box"] ;
110 -> 111 ;
112 [label="gini = 0.0000\nsamples = 1\nvalue = [ 0.  1.]", shape="box"] ;
110 -> 112 ;
113 [label="X[31] <= 384.5000\ngini = 0.48\nsamples = 10", shape="box"] ;
107 -> 113 ;
114 [label="X[26] <= 481.5000\ngini = 0.375\nsamples = 8", shape="box"] ;
113 -> 114 ;
115 [label="gini = 0.0000\nsamples = 3\nvalue = [ 0.  3.]", shape="box"] ;
114 -> 115 ;
116 [label="X[78] <= 115.0000\ngini = 0.48\nsamples = 5", shape="box"] ;
114 -> 116 ;
117 [label="X[0] <= 713.5000\ngini = 0.5\nsamples = 2", shape="box"] ;
116 -> 117 ;
118 [label="gini = 0.0000\nsamples = 1\nvalue = [ 1.  0.]", shape="box"] ;
117 -> 118 ;
119 [label="gini = 0.0000\nsamples = 1\nvalue = [ 0.  1.]", shape="box"] ;
117 -> 119 ;
120 [label="X[36] <= 478.5000\ngini = 0.444444444444\nsamples = 3", shape="box"] ;
116 -> 120 ;
121 [label="gini = 0.5000\nsamples = 2\nvalue = [ 1.  1.]", shape="box"] ;
120 -> 121 ;
122 [label="gini = 0.0000\nsamples = 1\nvalue = [ 0.  1.]", shape="box"] ;
120 -> 122 ;
123 [label="gini = 0.0000\nsamples = 2\nvalue = [ 2.  0.]", shape="box"] ;
113 -> 123 ;
124 [label="gini = 0.0000\nsamples = 11\nvalue = [ 11.   0.]", shape="box"] ;
90 -> 124 ;
125 [label="X[2] <= 44.3050\ngini = 0.490954481721\nsamples = 342", shape="box"] ;
49 -> 125 ;
126 [label="X[51] <= 298.5000\ngini = 0.499973360328\nsamples = 274", shape="box"] ;
125 -> 126 ;
127 [label="X[24] <= 470.5000\ngini = 0.389273356401\nsamples = 68", shape="box"] ;
126 -> 127 ;
128 [label="gini = 0.0000\nsamples = 19\nvalue = [  0.  19.]", shape="box"] ;
127 -> 128 ;
129 [label="X[71] <= 357.0000\ngini = 0.464806330696\nsamples = 49", shape="box"] ;
127 -> 129 ;
130 [label="X[34] <= 33.2700\ngini = 0.495\nsamples = 40", shape="box"] ;
129 -> 130 ;
131 [label="X[46] <= 444.5000\ngini = 0.260355029586\nsamples = 13", shape="box"] ;
130 -> 131 ;
132 [label="X[4] <= 396.0000\ngini = 0.152777777778\nsamples = 12", shape="box"] ;
131 -> 132 ;
133 [label="X[59] <= 523.5000\ngini = 0.5\nsamples = 2", shape="box"] ;
132 -> 133 ;
134 [label="gini = 0.0000\nsamples = 1\nvalue = [ 1.  0.]", shape="box"] ;
133 -> 134 ;
135 [label="gini = 0.0000\nsamples = 1\nvalue = [ 0.  1.]", shape="box"] ;
133 -> 135 ;
136 [label="gini = 0.0000\nsamples = 10\nvalue = [  0.  10.]", shape="box"] ;
132 -> 136 ;
137 [label="gini = 0.0000\nsamples = 1\nvalue = [ 1.  0.]", shape="box"] ;
131 -> 137 ;
138 [label="X[0] <= 681.5000\ngini = 0.482853223594\nsamples = 27", shape="box"] ;
130 -> 138 ;
139 [label="gini = 0.0000\nsamples = 8\nvalue = [ 8.  0.]", shape="box"] ;
138 -> 139 ;
140 [label="X[25] <= 38.3500\ngini = 0.487534626039\nsamples = 19", shape="box"] ;
138 -> 140 ;
141 [label="X[37] <= 205.5000\ngini = 0.4296875\nsamples = 16", shape="box"] ;
140 -> 141 ;
142 [label="X[68] <= 68.3700\ngini = 0.489795918367\nsamples = 7", shape="box"] ;
141 -> 142 ;
143 [label="gini = 0.0000\nsamples = 2\nvalue = [ 2.  0.]", shape="box"] ;
142 -> 143 ;
144 [label="X[13] <= 1069.5000\ngini = 0.48\nsamples = 5", shape="box"] ;
142 -> 144 ;
145 [label="gini = 0.0000\nsamples = 2\nvalue = [ 0.  2.]", shape="box"] ;
144 -> 145 ;
146 [label="X[46] <= 289.5000\ngini = 0.444444444444\nsamples = 3", shape="box"] ;
144 -> 146 ;
147 [label="X[3] <= 145.5000\ngini = 0.5\nsamples = 2", shape="box"] ;
146 -> 147 ;
148 [label="gini = 0.0000\nsamples = 1\nvalue = [ 1.  0.]", shape="box"] ;
147 -> 148 ;
149 [label="gini = 0.0000\nsamples = 1\nvalue = [ 0.  1.]", shape="box"] ;
147 -> 149 ;
150 [label="gini = 0.0000\nsamples = 1\nvalue = [ 1.  0.]", shape="box"] ;
146 -> 150 ;
151 [label="X[78] <= 93.5000\ngini = 0.197530864198\nsamples = 9", shape="box"] ;
141 -> 151 ;
152 [label="X[35] <= 455.5000\ngini = 0.5\nsamples = 2", shape="box"] ;
151 -> 152 ;
153 [label="gini = 0.0000\nsamples = 1\nvalue = [ 1.  0.]", shape="box"] ;
152 -> 153 ;
154 [label="gini = 0.0000\nsamples = 1\nvalue = [ 0.  1.]", shape="box"] ;
152 -> 154 ;
155 [label="gini = 0.0000\nsamples = 7\nvalue = [ 0.  7.]", shape="box"] ;
151 -> 155 ;
156 [label="gini = 0.0000\nsamples = 3\nvalue = [ 3.  0.]", shape="box"] ;
140 -> 156 ;
157 [label="gini = 0.0000\nsamples = 9\nvalue = [ 0.  9.]", shape="box"] ;
129 -> 157 ;
158 [label="X[24] <= 518.5000\ngini = 0.486379489113\nsamples = 206", shape="box"] ;
126 -> 158 ;
159 [label="X[64] <= 516.5000\ngini = 0.489244444444\nsamples = 75", shape="box"] ;
158 -> 159 ;
160 [label="X[6] <= 476.5000\ngini = 0.452662721893\nsamples = 26", shape="box"] ;
159 -> 160 ;
161 [label="X[22] <= 41.8100\ngini = 0.413194444444\nsamples = 24", shape="box"] ;
160 -> 161 ;
162 [label="X[68] <= 70.6350\ngini = 0.375\nsamples = 4", shape="box"] ;
161 -> 162 ;
163 [label="gini = 0.0000\nsamples = 3\nvalue = [ 0.  3.]", shape="box"] ;
162 -> 163 ;
164 [label="gini = 0.0000\nsamples = 1\nvalue = [ 1.  0.]", shape="box"] ;
162 -> 164 ;
165 [label="X[2] <= 40.3550\ngini = 0.32\nsamples = 20", shape="box"] ;
161 -> 165 ;
166 [label="gini = 0.0000\nsamples = 1\nvalue = [ 0.  1.]", shape="box"] ;
165 -> 166 ;
167 [label="X[59] <= 549.0000\ngini = 0.265927977839\nsamples = 19", shape="box"] ;
165 -> 167 ;
168 [label="X[1] <= 1779.5000\ngini = 0.42\nsamples = 10", shape="box"] ;
167 -> 168 ;
169 [label="X[4] <= 436.0000\ngini = 0.244897959184\nsamples = 7", shape="box"] ;
168 -> 169 ;
170 [label="X[61] <= 1582.0000\ngini = 0.444444444444\nsamples = 3", shape="box"] ;
169 -> 170 ;
171 [label="gini = 0.0000\nsamples = 1\nvalue = [ 1.  0.]", shape="box"] ;
170 -> 171 ;
172 [label="gini = 0.5000\nsamples = 2\nvalue = [ 1.  1.]", shape="box"] ;
170 -> 172 ;
173 [label="gini = 0.0000\nsamples = 4\nvalue = [ 4.  0.]", shape="box"] ;
169 -> 173 ;
174 [label="X[47] <= 598.5000\ngini = 0.444444444444\nsamples = 3", shape="box"] ;
168 -> 174 ;
175 [label="X[25] <= 36.9950\ngini = 0.5\nsamples = 2", shape="box"] ;
174 -> 175 ;
176 [label="gini = 0.0000\nsamples = 1\nvalue = [ 1.  0.]", shape="box"] ;
175 -> 176 ;
177 [label="gini = 0.0000\nsamples = 1\nvalue = [ 0.  1.]", shape="box"] ;
175 -> 177 ;
178 [label="gini = 0.0000\nsamples = 1\nvalue = [ 0.  1.]", shape="box"] ;
174 -> 178 ;
179 [label="gini = 0.0000\nsamples = 9\nvalue = [ 9.  0.]", shape="box"] ;
167 -> 179 ;
180 [label="gini = 0.0000\nsamples = 2\nvalue = [ 0.  2.]", shape="box"] ;
160 -> 180 ;
181 [label="X[4] <= 509.5000\ngini = 0.424822990421\nsamples = 49", shape="box"] ;
159 -> 181 ;
182 [label="X[64] <= 583.0000\ngini = 0.5\nsamples = 22", shape="box"] ;
181 -> 182 ;
183 [label="X[45] <= 29.7950\ngini = 0.456747404844\nsamples = 17", shape="box"] ;
182 -> 183 ;
184 [label="gini = 0.0000\nsamples = 3\nvalue = [ 3.  0.]", shape="box"] ;
183 -> 184 ;
185 [label="X[30] <= 70.6000\ngini = 0.336734693878\nsamples = 14", shape="box"] ;
183 -> 185 ;
186 [label="gini = 0.0000\nsamples = 7\nvalue = [ 0.  7.]", shape="box"] ;
185 -> 186 ;
187 [label="X[45] <= 31.0100\ngini = 0.489795918367\nsamples = 7", shape="box"] ;
185 -> 187 ;
188 [label="gini = 0.0000\nsamples = 2\nvalue = [ 0.  2.]", shape="box"] ;
187 -> 188 ;
189 [label="X[65] <= 37.6450\ngini = 0.48\nsamples = 5", shape="box"] ;
187 -> 189 ;
190 [label="X[9] <= 2007.5000\ngini = 0.5\nsamples = 4", shape="box"] ;
189 -> 190 ;
191 [label="X[42] <= 39.3850\ngini = 0.5\nsamples = 2", shape="box"] ;
190 -> 191 ;
192 [label="gini = 0.0000\nsamples = 1\nvalue = [ 1.  0.]", shape="box"] ;
191 -> 192 ;
193 [label="gini = 0.0000\nsamples = 1\nvalue = [ 0.  1.]", shape="box"] ;
191 -> 193 ;
194 [label="X[60] <= 801.0000\ngini = 0.5\nsamples = 2", shape="box"] ;
190 -> 194 ;
195 [label="gini = 0.0000\nsamples = 1\nvalue = [ 0.  1.]", shape="box"] ;
194 -> 195 ;
196 [label="gini = 0.0000\nsamples = 1\nvalue = [ 1.  0.]", shape="box"] ;
194 -> 196 ;
197 [label="gini = 0.0000\nsamples = 1\nvalue = [ 1.  0.]", shape="box"] ;
189 -> 197 ;
198 [label="gini = 0.0000\nsamples = 5\nvalue = [ 5.  0.]", shape="box"] ;
182 -> 198 ;
199 [label="X[13] <= 1076.0000\ngini = 0.252400548697\nsamples = 27", shape="box"] ;
181 -> 199 ;
200 [label="X[75] <= 390.5000\ngini = 0.0907029478458\nsamples = 21", shape="box"] ;
199 -> 200 ;
201 [label="X[18] <= 92.5000\ngini = 0.5\nsamples = 2", shape="box"] ;
200 -> 201 ;
202 [label="gini = 0.0000\nsamples = 1\nvalue = [ 1.  0.]", shape="box"] ;
201 -> 202 ;
203 [label="gini = 0.0000\nsamples = 1\nvalue = [ 0.  1.]", shape="box"] ;
201 -> 203 ;
204 [label="gini = 0.0000\nsamples = 19\nvalue = [  0.  19.]", shape="box"] ;
200 -> 204 ;
205 [label="X[78] <= 111.5000\ngini = 0.5\nsamples = 6", shape="box"] ;
199 -> 205 ;
206 [label="gini = 0.0000\nsamples = 3\nvalue = [ 3.  0.]", shape="box"] ;
205 -> 206 ;
207 [label="gini = 0.0000\nsamples = 3\nvalue = [ 0.  3.]", shape="box"] ;
205 -> 207 ;
208 [label="X[11] <= 311.5000\ngini = 0.440999941728\nsamples = 131", shape="box"] ;
158 -> 208 ;
209 [label="X[59] <= 504.5000\ngini = 0.169921875\nsamples = 32", shape="box"] ;
208 -> 209 ;
210 [label="X[1] <= 1643.5000\ngini = 0.444444444444\nsamples = 3", shape="box"] ;
209 -> 210 ;
211 [label="gini = 0.0000\nsamples = 2\nvalue = [ 0.  2.]", shape="box"] ;
210 -> 211 ;
212 [label="gini = 0.0000\nsamples = 1\nvalue = [ 1.  0.]", shape="box"] ;
210 -> 212 ;
213 [label="X[2] <= 40.3250\ngini = 0.0665873959572\nsamples = 29", shape="box"] ;
209 -> 213 ;
214 [label="X[76] <= 399.5000\ngini = 0.5\nsamples = 2", shape="box"] ;
213 -> 214 ;
215 [label="gini = 0.0000\nsamples = 1\nvalue = [ 0.  1.]", shape="box"] ;
214 -> 215 ;
216 [label="gini = 0.0000\nsamples = 1\nvalue = [ 1.  0.]", shape="box"] ;
214 -> 216 ;
217 [label="gini = 0.0000\nsamples = 27\nvalue = [ 27.   0.]", shape="box"] ;
213 -> 217 ;
218 [label="X[48] <= 67.4800\ngini = 0.481583511887\nsamples = 99", shape="box"] ;
208 -> 218 ;
219 [label="X[24] <= 545.0000\ngini = 0.48875\nsamples = 40", shape="box"] ;
218 -> 219 ;
220 [label="X[43] <= 162.5000\ngini = 0.444444444444\nsamples = 21", shape="box"] ;
219 -> 220 ;
221 [label="X[14] <= 34.3700\ngini = 0.444444444444\nsamples = 9", shape="box"] ;
220 -> 221 ;
222 [label="X[78] <= 93.0000\ngini = 0.375\nsamples = 4", shape="box"] ;
221 -> 222 ;
223 [label="X[31] <= 364.5000\ngini = 0.5\nsamples = 2", shape="box"] ;
222 -> 223 ;
224 [label="gini = 0.0000\nsamples = 1\nvalue = [ 0.  1.]", shape="box"] ;
223 -> 224 ;
225 [label="gini = 0.0000\nsamples = 1\nvalue = [ 1.  0.]", shape="box"] ;
223 -> 225 ;
226 [label="gini = 0.0000\nsamples = 2\nvalue = [ 2.  0.]", shape="box"] ;
222 -> 226 ;
227 [label="gini = 0.0000\nsamples = 5\nvalue = [ 0.  5.]", shape="box"] ;
221 -> 227 ;
228 [label="X[11] <= 355.5000\ngini = 0.152777777778\nsamples = 12", shape="box"] ;
220 -> 228 ;
229 [label="gini = 0.0000\nsamples = 1\nvalue = [ 0.  1.]", shape="box"] ;
228 -> 229 ;
230 [label="gini = 0.0000\nsamples = 11\nvalue = [ 11.   0.]", shape="box"] ;
228 -> 230 ;
231 [label="X[46] <= 438.0000\ngini = 0.265927977839\nsamples = 19", shape="box"] ;
219 -> 231 ;
232 [label="X[29] <= 2421.5000\ngini = 0.1171875\nsamples = 16", shape="box"] ;
231 -> 232 ;
233 [label="gini = 0.0000\nsamples = 14\nvalue = [  0.  14.]", shape="box"] ;
232 -> 233 ;
234 [label="X[51] <= 376.5000\ngini = 0.5\nsamples = 2", shape="box"] ;
232 -> 234 ;
235 [label="gini = 0.0000\nsamples = 1\nvalue = [ 0.  1.]", shape="box"] ;
234 -> 235 ;
236 [label="gini = 0.0000\nsamples = 1\nvalue = [ 1.  0.]", shape="box"] ;
234 -> 236 ;
237 [label="X[19] <= 668.0000\ngini = 0.444444444444\nsamples = 3", shape="box"] ;
231 -> 237 ;
238 [label="gini = 0.0000\nsamples = 2\nvalue = [ 2.  0.]", shape="box"] ;
237 -> 238 ;
239 [label="gini = 0.0000\nsamples = 1\nvalue = [ 0.  1.]", shape="box"] ;
237 -> 239 ;
240 [label="X[37] <= 183.5000\ngini = 0.41022694628\nsamples = 59", shape="box"] ;
218 -> 240 ;
241 [label="X[47] <= 661.5000\ngini = 0.444444444444\nsamples = 12", shape="box"] ;
240 -> 241 ;
242 [label="gini = 0.0000\nsamples = 7\nvalue = [ 0.  7.]", shape="box"] ;
241 -> 242 ;
243 [label="X[32] <= 786.0000\ngini = 0.32\nsamples = 5", shape="box"] ;
241 -> 243 ;
244 [label="gini = 0.0000\nsamples = 4\nvalue = [ 4.  0.]", shape="box"] ;
243 -> 244 ;
245 [label="gini = 0.0000\nsamples = 1\nvalue = [ 0.  1.]", shape="box"] ;
243 -> 245 ;
246 [label="X[51] <= 395.0000\ngini = 0.309642372114\nsamples = 47", shape="box"] ;
240 -> 246 ;
247 [label="X[27] <= 782.0000\ngini = 0.202448979592\nsamples = 35", shape="box"] ;
246 -> 247 ;
248 [label="X[51] <= 316.5000\ngini = 0.160899653979\nsamples = 34", shape="box"] ;
247 -> 248 ;
249 [label="X[8] <= 67.9450\ngini = 0.336734693878\nsamples = 14", shape="box"] ;
248 -> 249 ;
250 [label="gini = 0.0000\nsamples = 9\nvalue = [ 9.  0.]", shape="box"] ;
249 -> 250 ;
251 [label="X[24] <= 577.0000\ngini = 0.48\nsamples = 5", shape="box"] ;
249 -> 251 ;
252 [label="X[64] <= 522.5000\ngini = 0.444444444444\nsamples = 3", shape="box"] ;
251 -> 252 ;
253 [label="gini = 0.5000\nsamples = 2\nvalue = [ 1.  1.]", shape="box"] ;
252 -> 253 ;
254 [label="gini = 0.0000\nsamples = 1\nvalue = [ 1.  0.]", shape="box"] ;
252 -> 254 ;
255 [label="gini = 0.0000\nsamples = 2\nvalue = [ 0.  2.]", shape="box"] ;
251 -> 255 ;
256 [label="gini = 0.0000\nsamples = 20\nvalue = [ 20.   0.]", shape="box"] ;
248 -> 256 ;
257 [label="gini = 0.0000\nsamples = 1\nvalue = [ 0.  1.]", shape="box"] ;
247 -> 257 ;
258 [label="X[36] <= 399.0000\ngini = 0.486111111111\nsamples = 12", shape="box"] ;
246 -> 258 ;
259 [label="gini = 0.0000\nsamples = 3\nvalue = [ 0.  3.]", shape="box"] ;
258 -> 259 ;
260 [label="X[48] <= 68.8800\ngini = 0.345679012346\nsamples = 9", shape="box"] ;
258 -> 260 ;
261 [label="X[36] <= 468.0000\ngini = 0.444444444444\nsamples = 3", shape="box"] ;
260 -> 261 ;
262 [label="gini = 0.0000\nsamples = 2\nvalue = [ 0.  2.]", shape="box"] ;
261 -> 262 ;
263 [label="gini = 0.0000\nsamples = 1\nvalue = [ 1.  0.]", shape="box"] ;
261 -> 263 ;
264 [label="gini = 0.0000\nsamples = 6\nvalue = [ 6.  0.]", shape="box"] ;
260 -> 264 ;
265 [label="X[60] <= 770.5000\ngini = 0.250865051903\nsamples = 68", shape="box"] ;
125 -> 265 ;
266 [label="X[32] <= 595.5000\ngini = 0.0886965927528\nsamples = 43", shape="box"] ;
265 -> 266 ;
267 [label="X[63] <= 178.0000\ngini = 0.5\nsamples = 2", shape="box"] ;
266 -> 267 ;
268 [label="gini = 0.0000\nsamples = 1\nvalue = [ 0.  1.]", shape="box"] ;
267 -> 268 ;
269 [label="gini = 0.0000\nsamples = 1\nvalue = [ 1.  0.]", shape="box"] ;
267 -> 269 ;
270 [label="X[45] <= 29.3400\ngini = 0.0475907198096\nsamples = 41", shape="box"] ;
266 -> 270 ;
271 [label="X[11] <= 293.0000\ngini = 0.5\nsamples = 2", shape="box"] ;
270 -> 271 ;
272 [label="gini = 0.0000\nsamples = 1\nvalue = [ 1.  0.]", shape="box"] ;
271 -> 272 ;
273 [label="gini = 0.0000\nsamples = 1\nvalue = [ 0.  1.]", shape="box"] ;
271 -> 273 ;
274 [label="gini = 0.0000\nsamples = 39\nvalue = [  0.  39.]", shape="box"] ;
270 -> 274 ;
275 [label="X[8] <= 71.5850\ngini = 0.4352\nsamples = 25", shape="box"] ;
265 -> 275 ;
276 [label="X[8] <= 68.4250\ngini = 0.498269896194\nsamples = 17", shape="box"] ;
275 -> 276 ;
277 [label="X[69] <= 2166.0000\ngini = 0.21875\nsamples = 8", shape="box"] ;
276 -> 277 ;
278 [label="gini = 0.0000\nsamples = 1\nvalue = [ 1.  0.]", shape="box"] ;
277 -> 278 ;
279 [label="gini = 0.0000\nsamples = 7\nvalue = [ 0.  7.]", shape="box"] ;
277 -> 279 ;
280 [label="X[75] <= 478.0000\ngini = 0.345679012346\nsamples = 9", shape="box"] ;
276 -> 280 ;
281 [label="gini = 0.0000\nsamples = 6\nvalue = [ 6.  0.]", shape="box"] ;
280 -> 281 ;
282 [label="X[22] <= 46.4900\ngini = 0.444444444444\nsamples = 3", shape="box"] ;
280 -> 282 ;
283 [label="gini = 0.0000\nsamples = 2\nvalue = [ 0.  2.]", shape="box"] ;
282 -> 283 ;
284 [label="gini = 0.0000\nsamples = 1\nvalue = [ 1.  0.]", shape="box"] ;
282 -> 284 ;
285 [label="gini = 0.0000\nsamples = 8\nvalue = [ 0.  8.]", shape="box"] ;
275 -> 285 ;
286 [label="X[55] <= 424.0000\ngini = 0.387811634349\nsamples = 399", shape="box"] ;
48 -> 286 ;
287 [label="X[69] <= 2213.0000\ngini = 0.441039515842\nsamples = 265", shape="box"] ;
286 -> 287 ;
288 [label="X[6] <= 397.0000\ngini = 0.402106664578\nsamples = 226", shape="box"] ;
287 -> 288 ;
289 [label="X[18] <= 49.5000\ngini = 0.224081632653\nsamples = 70", shape="box"] ;
288 -> 289 ;
290 [label="gini = 0.0000\nsamples = 2\nvalue = [ 0.  2.]", shape="box"] ;
289 -> 290 ;
291 [label="X[26] <= 304.5000\ngini = 0.184688581315\nsamples = 68", shape="box"] ;
289 -> 291 ;
292 [label="X[65] <= 33.5100\ngini = 0.5\nsamples = 4", shape="box"] ;
291 -> 292 ;
293 [label="gini = 0.0000\nsamples = 2\nvalue = [ 2.  0.]", shape="box"] ;
292 -> 293 ;
294 [label="gini = 0.0000\nsamples = 2\nvalue = [ 0.  2.]", shape="box"] ;
292 -> 294 ;
295 [label="X[57] <= 259.5000\ngini = 0.14404296875\nsamples = 64", shape="box"] ;
291 -> 295 ;
296 [label="X[1] <= 1542.0000\ngini = 0.09652398736\nsamples = 59", shape="box"] ;
295 -> 296 ;
297 [label="X[46] <= 379.5000\ngini = 0.32\nsamples = 15", shape="box"] ;
296 -> 297 ;
298 [label="X[1] <= 1473.0000\ngini = 0.489795918367\nsamples = 7", shape="box"] ;
297 -> 298 ;
299 [label="gini = 0.0000\nsamples = 3\nvalue = [ 3.  0.]", shape="box"] ;
298 -> 299 ;
300 [label="X[21] <= 1425.5000\ngini = 0.375\nsamples = 4", shape="box"] ;
298 -> 300 ;
301 [label="X[59] <= 531.5000\ngini = 0.5\nsamples = 2", shape="box"] ;
300 -> 301 ;
302 [label="gini = 0.0000\nsamples = 1\nvalue = [ 0.  1.]", shape="box"] ;
301 -> 302 ;
303 [label="gini = 0.0000\nsamples = 1\nvalue = [ 1.  0.]", shape="box"] ;
301 -> 303 ;
304 [label="gini = 0.0000\nsamples = 2\nvalue = [ 0.  2.]", shape="box"] ;
300 -> 304 ;
305 [label="gini = 0.0000\nsamples = 8\nvalue = [ 8.  0.]", shape="box"] ;
297 -> 305 ;
306 [label="gini = 0.0000\nsamples = 44\nvalue = [ 44.   0.]", shape="box"] ;
296 -> 306 ;
307 [label="X[8] <= 64.6750\ngini = 0.48\nsamples = 5", shape="box"] ;
295 -> 307 ;
308 [label="gini = 0.0000\nsamples = 2\nvalue = [ 0.  2.]", shape="box"] ;
307 -> 308 ;
309 [label="gini = 0.0000\nsamples = 3\nvalue = [ 3.  0.]", shape="box"] ;
307 -> 309 ;
310 [label="X[27] <= 619.0000\ngini = 0.452662721893\nsamples = 156", shape="box"] ;
288 -> 310 ;
311 [label="X[54] <= 31.8850\ngini = 0.470868014269\nsamples = 29", shape="box"] ;
310 -> 311 ;
312 [label="gini = 0.0000\nsamples = 5\nvalue = [ 5.  0.]", shape="box"] ;
311 -> 312 ;
313 [label="X[74] <= 34.4300\ngini = 0.375\nsamples = 24", shape="box"] ;
311 -> 313 ;
314 [label="X[59] <= 652.5000\ngini = 0.197530864198\nsamples = 18", shape="box"] ;
313 -> 314 ;
315 [label="X[56] <= 542.0000\ngini = 0.110726643599\nsamples = 17", shape="box"] ;
314 -> 315 ;
316 [label="gini = 0.0000\nsamples = 15\nvalue = [  0.  15.]", shape="box"] ;
315 -> 316 ;
317 [label="gini = 0.5000\nsamples = 2\nvalue = [ 1.  1.]", shape="box"] ;
315 -> 317 ;
318 [label="gini = 0.0000\nsamples = 1\nvalue = [ 1.  0.]", shape="box"] ;
314 -> 318 ;
319 [label="X[6] <= 430.5000\ngini = 0.444444444444\nsamples = 6", shape="box"] ;
313 -> 319 ;
320 [label="gini = 0.0000\nsamples = 2\nvalue = [ 0.  2.]", shape="box"] ;
319 -> 320 ;
321 [label="gini = 0.0000\nsamples = 4\nvalue = [ 4.  0.]", shape="box"] ;
319 -> 321 ;
322 [label="X[1] <= 1582.0000\ngini = 0.40622481245\nsamples = 127", shape="box"] ;
310 -> 322 ;
323 [label="X[70] <= 73.2050\ngini = 0.0798611111111\nsamples = 24", shape="box"] ;
322 -> 323 ;
324 [label="gini = 0.0000\nsamples = 23\nvalue = [ 23.   0.]", shape="box"] ;
323 -> 324 ;
325 [label="gini = 0.0000\nsamples = 1\nvalue = [ 0.  1.]", shape="box"] ;
323 -> 325 ;
326 [label="X[32] <= 754.0000\ngini = 0.448675652748\nsamples = 103", shape="box"] ;
322 -> 326 ;
327 [label="X[77] <= 196.5000\ngini = 0.49926035503\nsamples = 52", shape="box"] ;
326 -> 327 ;
328 [label="X[8] <= 71.6050\ngini = 0.385633270321\nsamples = 23", shape="box"] ;
327 -> 328 ;
329 [label="X[37] <= 227.0000\ngini = 0.14201183432\nsamples = 13", shape="box"] ;
328 -> 329 ;
330 [label="gini = 0.0000\nsamples = 11\nvalue = [  0.  11.]", shape="box"] ;
329 -> 330 ;
331 [label="gini = 0.5000\nsamples = 2\nvalue = [ 1.  1.]", shape="box"] ;
329 -> 331 ;
332 [label="X[12] <= 651.5000\ngini = 0.5\nsamples = 10", shape="box"] ;
328 -> 332 ;
333 [label="gini = 0.0000\nsamples = 1\nvalue = [ 1.  0.]", shape="box"] ;
332 -> 333 ;
334 [label="X[52] <= 646.5000\ngini = 0.493827160494\nsamples = 9", shape="box"] ;
332 -> 334 ;
335 [label="X[11] <= 357.0000\ngini = 0.444444444444\nsamples = 3", shape="box"] ;
334 -> 335 ;
336 [label="gini = 0.5000\nsamples = 2\nvalue = [ 1.  1.]", shape="box"] ;
335 -> 336 ;
337 [label="gini = 0.0000\nsamples = 1\nvalue = [ 0.  1.]", shape="box"] ;
335 -> 337 ;
338 [label="X[17] <= 158.0000\ngini = 0.5\nsamples = 6", shape="box"] ;
334 -> 338 ;
339 [label="gini = 0.0000\nsamples = 1\nvalue = [ 1.  0.]", shape="box"] ;
338 -> 339 ;
340 [label="X[72] <= 662.5000\ngini = 0.48\nsamples = 5", shape="box"] ;
338 -> 340 ;
341 [label="gini = 0.0000\nsamples = 1\nvalue = [ 0.  1.]", shape="box"] ;
340 -> 341 ;
342 [label="X[33] <= 1019.5000\ngini = 0.5\nsamples = 4", shape="box"] ;
340 -> 342 ;
343 [label="X[46] <= 446.0000\ngini = 0.444444444444\nsamples = 3", shape="box"] ;
342 -> 343 ;
344 [label="gini = 0.5000\nsamples = 2\nvalue = [ 1.  1.]", shape="box"] ;
343 -> 344 ;
345 [label="gini = 0.0000\nsamples = 1\nvalue = [ 0.  1.]", shape="box"] ;
343 -> 345 ;
346 [label="gini = 0.0000\nsamples = 1\nvalue = [ 1.  0.]", shape="box"] ;
342 -> 346 ;
347 [label="X[4] <= 503.5000\ngini = 0.399524375743\nsamples = 29", shape="box"] ;
327 -> 347 ;
348 [label="gini = 0.0000\nsamples = 3\nvalue = [ 0.  3.]", shape="box"] ;
347 -> 348 ;
349 [label="X[33] <= 974.5000\ngini = 0.310650887574\nsamples = 26", shape="box"] ;
347 -> 349 ;
350 [label="X[63] <= 189.0000\ngini = 0.375\nsamples = 4", shape="box"] ;
349 -> 350 ;
351 [label="gini = 0.0000\nsamples = 1\nvalue = [ 1.  0.]", shape="box"] ;
350 -> 351 ;
352 [label="gini = 0.0000\nsamples = 3\nvalue = [ 0.  3.]", shape="box"] ;
350 -> 352 ;
353 [label="X[14] <= 35.5250\ngini = 0.165289256198\nsamples = 22", shape="box"] ;
349 -> 353 ;
354 [label="gini = 0.0000\nsamples = 18\nvalue = [ 18.   0.]", shape="box"] ;
353 -> 354 ;
355 [label="X[43] <= 188.0000\ngini = 0.5\nsamples = 4", shape="box"] ;
353 -> 355 ;
356 [label="gini = 0.0000\nsamples = 2\nvalue = [ 0.  2.]", shape="box"] ;
355 -> 356 ;
357 [label="gini = 0.0000\nsamples = 2\nvalue = [ 2.  0.]", shape="box"] ;
355 -> 357 ;
358 [label="X[67] <= 781.5000\ngini = 0.315263360246\nsamples = 51", shape="box"] ;
326 -> 358 ;
359 [label="X[28] <= 71.1100\ngini = 0.249131944444\nsamples = 48", shape="box"] ;
358 -> 359 ;
360 [label="X[46] <= 316.5000\ngini = 0.104938271605\nsamples = 36", shape="box"] ;
359 -> 360 ;
361 [label="gini = 0.0000\nsamples = 1\nvalue = [ 0.  1.]", shape="box"] ;
360 -> 361 ;
362 [label="X[21] <= 1583.5000\ngini = 0.0555102040816\nsamples = 35", shape="box"] ;
360 -> 362 ;
363 [label="gini = 0.0000\nsamples = 1\nvalue = [ 0.  1.]", shape="box"] ;
362 -> 363 ;
364 [label="gini = 0.0000\nsamples = 34\nvalue = [ 34.   0.]", shape="box"] ;
362 -> 364 ;
365 [label="X[52] <= 707.5000\ngini = 0.486111111111\nsamples = 12", shape="box"] ;
359 -> 365 ;
366 [label="X[52] <= 646.5000\ngini = 0.408163265306\nsamples = 7", shape="box"] ;
365 -> 366 ;
367 [label="X[61] <= 1578.0000\ngini = 0.5\nsamples = 4", shape="box"] ;
366 -> 367 ;
368 [label="X[12] <= 706.0000\ngini = 0.5\nsamples = 2", shape="box"] ;
367 -> 368 ;
369 [label="gini = 0.0000\nsamples = 1\nvalue = [ 1.  0.]", shape="box"] ;
368 -> 369 ;
370 [label="gini = 0.0000\nsamples = 1\nvalue = [ 0.  1.]", shape="box"] ;
368 -> 370 ;
371 [label="X[30] <= 73.8000\ngini = 0.5\nsamples = 2", shape="box"] ;
367 -> 371 ;
372 [label="gini = 0.0000\nsamples = 1\nvalue = [ 0.  1.]", shape="box"] ;
371 -> 372 ;
373 [label="gini = 0.0000\nsamples = 1\nvalue = [ 1.  0.]", shape="box"] ;
371 -> 373 ;
374 [label="gini = 0.0000\nsamples = 3\nvalue = [ 0.  3.]", shape="box"] ;
366 -> 374 ;
375 [label="gini = 0.0000\nsamples = 5\nvalue = [ 5.  0.]", shape="box"] ;
365 -> 375 ;
376 [label="gini = 0.0000\nsamples = 3\nvalue = [ 0.  3.]", shape="box"] ;
358 -> 376 ;
377 [label="X[32] <= 686.0000\ngini = 0.473372781065\nsamples = 39", shape="box"] ;
287 -> 377 ;
378 [label="gini = 0.0000\nsamples = 13\nvalue = [  0.  13.]", shape="box"] ;
377 -> 378 ;
379 [label="X[37] <= 201.5000\ngini = 0.488165680473\nsamples = 26", shape="box"] ;
377 -> 379 ;
380 [label="X[55] <= 354.5000\ngini = 0.165289256198\nsamples = 11", shape="box"] ;
379 -> 380 ;
381 [label="gini = 0.5000\nsamples = 2\nvalue = [ 1.  1.]", shape="box"] ;
380 -> 381 ;
382 [label="gini = 0.0000\nsamples = 9\nvalue = [ 9.  0.]", shape="box"] ;
380 -> 382 ;
383 [label="X[8] <= 68.1450\ngini = 0.444444444444\nsamples = 15", shape="box"] ;
379 -> 383 ;
384 [label="X[22] <= 44.1750\ngini = 0.408163265306\nsamples = 7", shape="box"] ;
383 -> 384 ;
385 [label="gini = 0.0000\nsamples = 4\nvalue = [ 4.  0.]", shape="box"] ;
384 -> 385 ;
386 [label="X[8] <= 66.4250\ngini = 0.444444444444\nsamples = 3", shape="box"] ;
384 -> 386 ;
387 [label="gini = 0.0000\nsamples = 2\nvalue = [ 0.  2.]", shape="box"] ;
386 -> 387 ;
388 [label="gini = 0.0000\nsamples = 1\nvalue = [ 1.  0.]", shape="box"] ;
386 -> 388 ;
389 [label="gini = 0.0000\nsamples = 8\nvalue = [ 0.  8.]", shape="box"] ;
383 -> 389 ;
390 [label="X[8] <= 75.8950\ngini = 0.23256850078\nsamples = 134", shape="box"] ;
286 -> 390 ;
391 [label="X[57] <= 162.0000\ngini = 0.19482421875\nsamples = 128", shape="box"] ;
390 -> 391 ;
392 [label="X[36] <= 469.0000\ngini = 0.495867768595\nsamples = 11", shape="box"] ;
391 -> 392 ;
393 [label="X[31] <= 299.5000\ngini = 0.277777777778\nsamples = 6", shape="box"] ;
392 -> 393 ;
394 [label="gini = 0.0000\nsamples = 1\nvalue = [ 1.  0.]", shape="box"] ;
393 -> 394 ;
395 [label="gini = 0.0000\nsamples = 5\nvalue = [ 0.  5.]", shape="box"] ;
393 -> 395 ;
396 [label="gini = 0.0000\nsamples = 5\nvalue = [ 5.  0.]", shape="box"] ;
392 -> 396 ;
397 [label="X[55] <= 481.5000\ngini = 0.14201183432\nsamples = 117", shape="box"] ;
391 -> 397 ;
398 [label="X[28] <= 63.0300\ngini = 0.102264426589\nsamples = 111", shape="box"] ;
397 -> 398 ;
399 [label="gini = 0.0000\nsamples = 1\nvalue = [ 0.  1.]", shape="box"] ;
398 -> 399 ;
400 [label="X[11] <= 276.5000\ngini = 0.0867768595041\nsamples = 110", shape="box"] ;
398 -> 400 ;
401 [label="X[46] <= 446.0000\ngini = 0.408163265306\nsamples = 14", shape="box"] ;
400 -> 401 ;
402 [label="gini = 0.0000\nsamples = 8\nvalue = [ 8.  0.]", shape="box"] ;
401 -> 402 ;
403 [label="X[8] <= 72.0050\ngini = 0.444444444444\nsamples = 6", shape="box"] ;
401 -> 403 ;
404 [label="gini = 0.0000\nsamples = 4\nvalue = [ 0.  4.]", shape="box"] ;
403 -> 404 ;
405 [label="gini = 0.0000\nsamples = 2\nvalue = [ 2.  0.]", shape="box"] ;
403 -> 405 ;
406 [label="X[38] <= 67.0000\ngini = 0.0206163194444\nsamples = 96", shape="box"] ;
400 -> 406 ;
407 [label="X[55] <= 452.0000\ngini = 0.5\nsamples = 2", shape="box"] ;
406 -> 407 ;
408 [label="gini = 0.0000\nsamples = 1\nvalue = [ 0.  1.]", shape="box"] ;
407 -> 408 ;
409 [label="gini = 0.0000\nsamples = 1\nvalue = [ 1.  0.]", shape="box"] ;
407 -> 409 ;
410 [label="gini = 0.0000\nsamples = 94\nvalue = [ 94.   0.]", shape="box"] ;
406 -> 410 ;
411 [label="X[34] <= 31.3750\ngini = 0.5\nsamples = 6", shape="box"] ;
397 -> 411 ;
412 [label="gini = 0.0000\nsamples = 2\nvalue = [ 0.  2.]", shape="box"] ;
411 -> 412 ;
413 [label="X[19] <= 573.0000\ngini = 0.375\nsamples = 4", shape="box"] ;
411 -> 413 ;
414 [label="gini = 0.0000\nsamples = 3\nvalue = [ 3.  0.]", shape="box"] ;
413 -> 414 ;
415 [label="gini = 0.0000\nsamples = 1\nvalue = [ 0.  1.]", shape="box"] ;
413 -> 415 ;
416 [label="X[20] <= 814.0000\ngini = 0.444444444444\nsamples = 6", shape="box"] ;
390 -> 416 ;
417 [label="gini = 0.0000\nsamples = 4\nvalue = [ 0.  4.]", shape="box"] ;
416 -> 417 ;
418 [label="gini = 0.0000\nsamples = 2\nvalue = [ 2.  0.]", shape="box"] ;
416 -> 418 ;
419 [label="X[0] <= 844.0000\ngini = 0.470551328719\nsamples = 1265", shape="box"] ;
1 -> 419 ;
420 [label="X[70] <= 67.7300\ngini = 0.496314675939\nsamples = 827", shape="box"] ;
419 -> 420 ;
421 [label="X[55] <= 412.5000\ngini = 0.488657216888\nsamples = 405", shape="box"] ;
420 -> 421 ;
422 [label="X[16] <= 434.5000\ngini = 0.499382457716\nsamples = 313", shape="box"] ;
421 -> 422 ;
423 [label="X[69] <= 2086.5000\ngini = 0.479316288423\nsamples = 118", shape="box"] ;
422 -> 423 ;
424 [label="X[10] <= 62.8450\ngini = 0.43125867946\nsamples = 89", shape="box"] ;
423 -> 424 ;
425 [label="gini = 0.0000\nsamples = 3\nvalue = [ 3.  0.]", shape="box"] ;
424 -> 425 ;
426 [label="X[10] <= 68.8550\ngini = 0.412385073012\nsamples = 86", shape="box"] ;
424 -> 426 ;
427 [label="X[1] <= 1727.5000\ngini = 0.287334593573\nsamples = 46", shape="box"] ;
426 -> 427 ;
428 [label="X[28] <= 68.4350\ngini = 0.4352\nsamples = 25", shape="box"] ;
427 -> 428 ;
429 [label="X[46] <= 424.0000\ngini = 0.5\nsamples = 14", shape="box"] ;
428 -> 429 ;
430 [label="X[68] <= 70.4200\ngini = 0.42\nsamples = 10", shape="box"] ;
429 -> 430 ;
431 [label="gini = 0.0000\nsamples = 6\nvalue = [ 6.  0.]", shape="box"] ;
430 -> 431 ;
432 [label="X[4] <= 620.5000\ngini = 0.375\nsamples = 4", shape="box"] ;
430 -> 432 ;
433 [label="gini = 0.0000\nsamples = 3\nvalue = [ 0.  3.]", shape="box"] ;
432 -> 433 ;
434 [label="gini = 0.0000\nsamples = 1\nvalue = [ 1.  0.]", shape="box"] ;
432 -> 434 ;
435 [label="gini = 0.0000\nsamples = 4\nvalue = [ 0.  4.]", shape="box"] ;
429 -> 435 ;
436 [label="X[56] <= 448.0000\ngini = 0.165289256198\nsamples = 11", shape="box"] ;
428 -> 436 ;
437 [label="gini = 0.0000\nsamples = 10\nvalue = [  0.  10.]", shape="box"] ;
436 -> 437 ;
438 [label="gini = 0.0000\nsamples = 1\nvalue = [ 1.  0.]", shape="box"] ;
436 -> 438 ;
439 [label="gini = 0.0000\nsamples = 21\nvalue = [  0.  21.]", shape="box"] ;
427 -> 439 ;
440 [label="X[46] <= 441.5000\ngini = 0.48875\nsamples = 40", shape="box"] ;
426 -> 440 ;
441 [label="X[10] <= 69.3650\ngini = 0.498046875\nsamples = 32", shape="box"] ;
440 -> 441 ;
442 [label="gini = 0.0000\nsamples = 6\nvalue = [ 6.  0.]", shape="box"] ;
441 -> 442 ;
443 [label="X[48] <= 72.5150\ngini = 0.488165680473\nsamples = 26", shape="box"] ;
441 -> 443 ;
444 [label="X[40] <= 741.5000\ngini = 0.453686200378\nsamples = 23", shape="box"] ;
443 -> 444 ;
445 [label="X[53] <= 926.5000\ngini = 0.408163265306\nsamples = 21", shape="box"] ;
444 -> 445 ;
446 [label="X[18] <= 99.5000\ngini = 0.489795918367\nsamples = 7", shape="box"] ;
445 -> 446 ;
447 [label="X[66] <= 407.5000\ngini = 0.48\nsamples = 5", shape="box"] ;
446 -> 447 ;
448 [label="gini = 0.0000\nsamples = 2\nvalue = [ 0.  2.]", shape="box"] ;
447 -> 448 ;
449 [label="X[6] <= 555.5000\ngini = 0.444444444444\nsamples = 3", shape="box"] ;
447 -> 449 ;
450 [label="gini = 0.0000\nsamples = 1\nvalue = [ 0.  1.]", shape="box"] ;
449 -> 450 ;
451 [label="gini = 0.0000\nsamples = 2\nvalue = [ 2.  0.]", shape="box"] ;
449 -> 451 ;
452 [label="gini = 0.0000\nsamples = 2\nvalue = [ 2.  0.]", shape="box"] ;
446 -> 452 ;
453 [label="X[62] <= 39.9250\ngini = 0.244897959184\nsamples = 14", shape="box"] ;
445 -> 453 ;
454 [label="X[45] <= 33.7300\ngini = 0.48\nsamples = 5", shape="box"] ;
453 -> 454 ;
455 [label="X[27] <= 659.5000\ngini = 0.444444444444\nsamples = 3", shape="box"] ;
454 -> 455 ;
456 [label="gini = 0.0000\nsamples = 2\nvalue = [ 0.  2.]", shape="box"] ;
455 -> 456 ;
457 [label="gini = 0.0000\nsamples = 1\nvalue = [ 1.  0.]", shape="box"] ;
455 -> 457 ;
458 [label="X[37] <= 201.5000\ngini = 0.5\nsamples = 2", shape="box"] ;
454 -> 458 ;
459 [label="gini = 0.0000\nsamples = 1\nvalue = [ 0.  1.]", shape="box"] ;
458 -> 459 ;
460 [label="gini = 0.0000\nsamples = 1\nvalue = [ 1.  0.]", shape="box"] ;
458 -> 460 ;
461 [label="gini = 0.0000\nsamples = 9\nvalue = [ 0.  9.]", shape="box"] ;
453 -> 461 ;
462 [label="gini = 0.0000\nsamples = 2\nvalue = [ 2.  0.]", shape="box"] ;
444 -> 462 ;
463 [label="gini = 0.0000\nsamples = 3\nvalue = [ 3.  0.]", shape="box"] ;
443 -> 463 ;
464 [label="gini = 0.0000\nsamples = 8\nvalue = [ 0.  8.]", shape="box"] ;
440 -> 464 ;
465 [label="X[34] <= 34.8900\ngini = 0.451843043995\nsamples = 29", shape="box"] ;
423 -> 465 ;
466 [label="X[3] <= 191.0000\ngini = 0.498269896194\nsamples = 17", shape="box"] ;
465 -> 466 ;
467 [label="gini = 0.0000\nsamples = 5\nvalue = [ 0.  5.]", shape="box"] ;
466 -> 467 ;
468 [label="X[2] <= 42.6750\ngini = 0.444444444444\nsamples = 12", shape="box"] ;
466 -> 468 ;
469 [label="gini = 0.0000\nsamples = 1\nvalue = [ 0.  1.]", shape="box"] ;
468 -> 469 ;
470 [label="X[77] <= 200.5000\ngini = 0.396694214876\nsamples = 11", shape="box"] ;
468 -> 470 ;
471 [label="X[6] <= 528.5000\ngini = 0.489795918367\nsamples = 7", shape="box"] ;
470 -> 471 ;
472 [label="X[44] <= 577.5000\ngini = 0.5\nsamples = 6", shape="box"] ;
471 -> 472 ;
473 [label="X[28] <= 70.5600\ngini = 0.444444444444\nsamples = 3", shape="box"] ;
472 -> 473 ;
474 [label="gini = 0.0000\nsamples = 1\nvalue = [ 1.  0.]", shape="box"] ;
473 -> 474 ;
475 [label="gini = 0.0000\nsamples = 2\nvalue = [ 0.  2.]", shape="box"] ;
473 -> 475 ;
476 [label="X[18] <= 90.5000\ngini = 0.444444444444\nsamples = 3", shape="box"] ;
472 -> 476 ;
477 [label="gini = 0.0000\nsamples = 1\nvalue = [ 0.  1.]", shape="box"] ;
476 -> 477 ;
478 [label="gini = 0.0000\nsamples = 2\nvalue = [ 2.  0.]", shape="box"] ;
476 -> 478 ;
479 [label="gini = 0.0000\nsamples = 1\nvalue = [ 1.  0.]", shape="box"] ;
471 -> 479 ;
480 [label="gini = 0.0000\nsamples = 4\nvalue = [ 4.  0.]", shape="box"] ;
470 -> 480 ;
481 [label="X[41] <= 1600.5000\ngini = 0.152777777778\nsamples = 12", shape="box"] ;
465 -> 481 ;
482 [label="X[6] <= 445.0000\ngini = 0.5\nsamples = 2", shape="box"] ;
481 -> 482 ;
483 [label="gini = 0.0000\nsamples = 1\nvalue = [ 1.  0.]", shape="box"] ;
482 -> 483 ;
484 [label="gini = 0.0000\nsamples = 1\nvalue = [ 0.  1.]", shape="box"] ;
482 -> 484 ;
485 [label="gini = 0.0000\nsamples = 10\nvalue = [ 10.   0.]", shape="box"] ;
481 -> 485 ;
486 [label="X[56] <= 439.5000\ngini = 0.4838921762\nsamples = 195", shape="box"] ;
422 -> 486 ;
487 [label="X[34] <= 33.0600\ngini = 0.454588102834\nsamples = 146", shape="box"] ;
486 -> 487 ;
488 [label="X[14] <= 36.1550\ngini = 0.459183673469\nsamples = 28", shape="box"] ;
487 -> 488 ;
489 [label="X[44] <= 531.0000\ngini = 0.4921875\nsamples = 16", shape="box"] ;
488 -> 489 ;
490 [label="gini = 0.0000\nsamples = 5\nvalue = [ 5.  0.]", shape="box"] ;
489 -> 490 ;
491 [label="X[53] <= 1007.0000\ngini = 0.462809917355\nsamples = 11", shape="box"] ;
489 -> 491 ;
492 [label="gini = 0.0000\nsamples = 3\nvalue = [ 0.  3.]", shape="box"] ;
491 -> 492 ;
493 [label="X[26] <= 440.5000\ngini = 0.5\nsamples = 8", shape="box"] ;
491 -> 493 ;
494 [label="gini = 0.0000\nsamples = 1\nvalue = [ 1.  0.]", shape="box"] ;
493 -> 494 ;
495 [label="X[56] <= 408.0000\ngini = 0.489795918367\nsamples = 7", shape="box"] ;
493 -> 495 ;
496 [label="X[3] <= 180.5000\ngini = 0.48\nsamples = 5", shape="box"] ;
495 -> 496 ;
497 [label="gini = 0.0000\nsamples = 2\nvalue = [ 2.  0.]", shape="box"] ;
496 -> 497 ;
498 [label="X[58] <= 75.5000\ngini = 0.444444444444\nsamples = 3", shape="box"] ;
496 -> 498 ;
499 [label="gini = 0.0000\nsamples = 1\nvalue = [ 1.  0.]", shape="box"] ;
498 -> 499 ;
500 [label="gini = 0.0000\nsamples = 2\nvalue = [ 0.  2.]", shape="box"] ;
498 -> 500 ;
501 [label="gini = 0.0000\nsamples = 2\nvalue = [ 0.  2.]", shape="box"] ;
495 -> 501 ;
502 [label="X[68] <= 63.9100\ngini = 0.152777777778\nsamples = 12", shape="box"] ;
488 -> 502 ;
503 [label="X[36] <= 494.5000\ngini = 0.5\nsamples = 2", shape="box"] ;
502 -> 503 ;
504 [label="gini = 0.0000\nsamples = 1\nvalue = [ 1.  0.]", shape="box"] ;
503 -> 504 ;
505 [label="gini = 0.0000\nsamples = 1\nvalue = [ 0.  1.]", shape="box"] ;
503 -> 505 ;
506 [label="gini = 0.0000\nsamples = 10\nvalue = [  0.  10.]", shape="box"] ;
502 -> 506 ;
507 [label="X[27] <= 686.0000\ngini = 0.402901465096\nsamples = 118", shape="box"] ;
487 -> 507 ;
508 [label="X[11] <= 435.0000\ngini = 0.310650887574\nsamples = 78", shape="box"] ;
507 -> 508 ;
509 [label="X[55] <= 345.0000\ngini = 0.283587257618\nsamples = 76", shape="box"] ;
508 -> 509 ;
510 [label="X[2] <= 41.0500\ngini = 0.417823228634\nsamples = 37", shape="box"] ;
509 -> 510 ;
511 [label="X[74] <= 38.6600\ngini = 0.132653061224\nsamples = 14", shape="box"] ;
510 -> 511 ;
512 [label="gini = 0.0000\nsamples = 12\nvalue = [ 12.   0.]", shape="box"] ;
511 -> 512 ;
513 [label="X[30] <= 70.6250\ngini = 0.5\nsamples = 2", shape="box"] ;
511 -> 513 ;
514 [label="gini = 0.0000\nsamples = 1\nvalue = [ 0.  1.]", shape="box"] ;
513 -> 514 ;
515 [label="gini = 0.0000\nsamples = 1\nvalue = [ 1.  0.]", shape="box"] ;
513 -> 515 ;
516 [label="X[3] <= 205.0000\ngini = 0.491493383743\nsamples = 23", shape="box"] ;
510 -> 516 ;
517 [label="X[45] <= 32.0600\ngini = 0.455\nsamples = 20", shape="box"] ;
516 -> 517 ;
518 [label="gini = 0.0000\nsamples = 4\nvalue = [ 4.  0.]", shape="box"] ;
517 -> 518 ;
519 [label="X[50] <= 62.2550\ngini = 0.4921875\nsamples = 16", shape="box"] ;
517 -> 519 ;
520 [label="X[31] <= 383.0000\ngini = 0.46875\nsamples = 8", shape="box"] ;
519 -> 520 ;
521 [label="gini = 0.0000\nsamples = 3\nvalue = [ 0.  3.]", shape="box"] ;
520 -> 521 ;
522 [label="X[12] <= 744.5000\ngini = 0.48\nsamples = 5", shape="box"] ;
520 -> 522 ;
523 [label="X[73] <= 986.0000\ngini = 0.444444444444\nsamples = 3", shape="box"] ;
522 -> 523 ;
524 [label="gini = 0.5000\nsamples = 2\nvalue = [ 1.  1.]", shape="box"] ;
523 -> 524 ;
525 [label="gini = 0.0000\nsamples = 1\nvalue = [ 0.  1.]", shape="box"] ;
523 -> 525 ;
526 [label="gini = 0.0000\nsamples = 2\nvalue = [ 2.  0.]", shape="box"] ;
522 -> 526 ;
527 [label="X[22] <= 41.9200\ngini = 0.375\nsamples = 8", shape="box"] ;
519 -> 527 ;
528 [label="X[63] <= 181.0000\ngini = 0.5\nsamples = 4", shape="box"] ;
527 -> 528 ;
529 [label="X[36] <= 396.0000\ngini = 0.444444444444\nsamples = 3", shape="box"] ;
528 -> 529 ;
530 [label="gini = 0.0000\nsamples = 1\nvalue = [ 1.  0.]", shape="box"] ;
529 -> 530 ;
531 [label="gini = 0.5000\nsamples = 2\nvalue = [ 1.  1.]", shape="box"] ;
529 -> 531 ;
532 [label="gini = 0.0000\nsamples = 1\nvalue = [ 0.  1.]", shape="box"] ;
528 -> 532 ;
533 [label="gini = 0.0000\nsamples = 4\nvalue = [ 4.  0.]", shape="box"] ;
527 -> 533 ;
534 [label="gini = 0.0000\nsamples = 3\nvalue = [ 0.  3.]", shape="box"] ;
516 -> 534 ;
535 [label="X[19] <= 524.0000\ngini = 0.0973044049967\nsamples = 39", shape="box"] ;
509 -> 535 ;
536 [label="gini = 0.0000\nsamples = 1\nvalue = [ 0.  1.]", shape="box"] ;
535 -> 536 ;
537 [label="X[66] <= 531.0000\ngini = 0.0512465373961\nsamples = 38", shape="box"] ;
535 -> 537 ;
538 [label="gini = 0.0000\nsamples = 35\nvalue = [ 35.   0.]", shape="box"] ;
537 -> 538 ;
539 [label="X[23] <= 194.5000\ngini = 0.444444444444\nsamples = 3", shape="box"] ;
537 -> 539 ;
540 [label="gini = 0.0000\nsamples = 1\nvalue = [ 1.  0.]", shape="box"] ;
539 -> 540 ;
541 [label="gini = 0.5000\nsamples = 2\nvalue = [ 1.  1.]", shape="box"] ;
539 -> 541 ;
542 [label="gini = 0.0000\nsamples = 2\nvalue = [ 0.  2.]", shape="box"] ;
508 -> 542 ;
543 [label="X[79] <= 488.0000\ngini = 0.495\nsamples = 40", shape="box"] ;
507 -> 543 ;
544 [label="gini = 0.0000\nsamples = 3\nvalue = [ 0.  3.]", shape="box"] ;
543 -> 544 ;
545 [label="X[68] <= 70.1300\ngini = 0.482103725347\nsamples = 37", shape="box"] ;
543 -> 545 ;
546 [label="X[13] <= 1127.0000\ngini = 0.499479708637\nsamples = 31", shape="box"] ;
545 -> 546 ;
547 [label="X[77] <= 179.5000\ngini = 0.345679012346\nsamples = 9", shape="box"] ;
546 -> 547 ;
548 [label="gini = 0.0000\nsamples = 4\nvalue = [ 4.  0.]", shape="box"] ;
547 -> 548 ;
549 [label="X[24] <= 570.5000\ngini = 0.48\nsamples = 5", shape="box"] ;
547 -> 549 ;
550 [label="X[73] <= 1108.0000\ngini = 0.444444444444\nsamples = 3", shape="box"] ;
549 -> 550 ;
551 [label="gini = 0.0000\nsamples = 1\nvalue = [ 0.  1.]", shape="box"] ;
550 -> 551 ;
552 [label="gini = 0.5000\nsamples = 2\nvalue = [ 1.  1.]", shape="box"] ;
550 -> 552 ;
553 [label="gini = 0.0000\nsamples = 2\nvalue = [ 2.  0.]", shape="box"] ;
549 -> 553 ;
554 [label="X[61] <= 1662.5000\ngini = 0.48347107438\nsamples = 22", shape="box"] ;
546 -> 554 ;
555 [label="X[26] <= 480.5000\ngini = 0.32\nsamples = 10", shape="box"] ;
554 -> 555 ;
556 [label="gini = 0.0000\nsamples = 1\nvalue = [ 1.  0.]", shape="box"] ;
555 -> 556 ;
557 [label="X[18] <= 88.0000\ngini = 0.197530864198\nsamples = 9", shape="box"] ;
555 -> 557 ;
558 [label="X[62] <= 44.4550\ngini = 0.5\nsamples = 2", shape="box"] ;
557 -> 558 ;
559 [label="gini = 0.0000\nsamples = 1\nvalue = [ 1.  0.]", shape="box"] ;
558 -> 559 ;
560 [label="gini = 0.0000\nsamples = 1\nvalue = [ 0.  1.]", shape="box"] ;
558 -> 560 ;
561 [label="gini = 0.0000\nsamples = 7\nvalue = [ 0.  7.]", shape="box"] ;
557 -> 561 ;
562 [label="X[19] <= 750.5000\ngini = 0.486111111111\nsamples = 12", shape="box"] ;
554 -> 562 ;
563 [label="X[60] <= 757.5000\ngini = 0.5\nsamples = 10", shape="box"] ;
562 -> 563 ;
564 [label="X[25] <= 29.7550\ngini = 0.493827160494\nsamples = 9", shape="box"] ;
563 -> 564 ;
565 [label="gini = 0.0000\nsamples = 1\nvalue = [ 0.  1.]", shape="box"] ;
564 -> 565 ;
566 [label="X[55] <= 400.0000\ngini = 0.5\nsamples = 8", shape="box"] ;
564 -> 566 ;
567 [label="X[33] <= 1186.0000\ngini = 0.489795918367\nsamples = 7", shape="box"] ;
566 -> 567 ;
568 [label="gini = 0.0000\nsamples = 1\nvalue = [ 0.  1.]", shape="box"] ;
567 -> 568 ;
569 [label="X[43] <= 155.5000\ngini = 0.5\nsamples = 6", shape="box"] ;
567 -> 569 ;
570 [label="gini = 0.0000\nsamples = 1\nvalue = [ 1.  0.]", shape="box"] ;
569 -> 570 ;
571 [label="X[79] <= 591.5000\ngini = 0.48\nsamples = 5", shape="box"] ;
569 -> 571 ;
572 [label="X[29] <= 2331.0000\ngini = 0.5\nsamples = 4", shape="box"] ;
571 -> 572 ;
573 [label="X[66] <= 360.5000\ngini = 0.5\nsamples = 2", shape="box"] ;
572 -> 573 ;
574 [label="gini = 0.0000\nsamples = 1\nvalue = [ 0.  1.]", shape="box"] ;
573 -> 574 ;
575 [label="gini = 0.0000\nsamples = 1\nvalue = [ 1.  0.]", shape="box"] ;
573 -> 575 ;
576 [label="X[48] <= 67.5500\ngini = 0.5\nsamples = 2", shape="box"] ;
572 -> 576 ;
577 [label="gini = 0.0000\nsamples = 1\nvalue = [ 0.  1.]", shape="box"] ;
576 -> 577 ;
578 [label="gini = 0.0000\nsamples = 1\nvalue = [ 1.  0.]", shape="box"] ;
576 -> 578 ;
579 [label="gini = 0.0000\nsamples = 1\nvalue = [ 0.  1.]", shape="box"] ;
571 -> 579 ;
580 [label="gini = 0.0000\nsamples = 1\nvalue = [ 1.  0.]", shape="box"] ;
566 -> 580 ;
581 [label="gini = 0.0000\nsamples = 1\nvalue = [ 1.  0.]", shape="box"] ;
563 -> 581 ;
582 [label="gini = 0.0000\nsamples = 2\nvalue = [ 2.  0.]", shape="box"] ;
562 -> 582 ;
583 [label="gini = 0.0000\nsamples = 6\nvalue = [ 6.  0.]", shape="box"] ;
545 -> 583 ;
584 [label="X[37] <= 251.0000\ngini = 0.483132028322\nsamples = 49", shape="box"] ;
486 -> 584 ;
585 [label="X[13] <= 1117.5000\ngini = 0.41135734072\nsamples = 38", shape="box"] ;
584 -> 585 ;
586 [label="X[60] <= 697.5000\ngini = 0.444444444444\nsamples = 12", shape="box"] ;
585 -> 586 ;
587 [label="X[12] <= 752.5000\ngini = 0.444444444444\nsamples = 6", shape="box"] ;
586 -> 587 ;
588 [label="X[40] <= 674.5000\ngini = 0.5\nsamples = 4", shape="box"] ;
587 -> 588 ;
589 [label="X[23] <= 197.5000\ngini = 0.5\nsamples = 2", shape="box"] ;
588 -> 589 ;
590 [label="gini = 0.0000\nsamples = 1\nvalue = [ 1.  0.]", shape="box"] ;
589 -> 590 ;
591 [label="gini = 0.0000\nsamples = 1\nvalue = [ 0.  1.]", shape="box"] ;
589 -> 591 ;
592 [label="X[23] <= 197.5000\ngini = 0.5\nsamples = 2", shape="box"] ;
588 -> 592 ;
593 [label="gini = 0.0000\nsamples = 1\nvalue = [ 0.  1.]", shape="box"] ;
592 -> 593 ;
594 [label="gini = 0.0000\nsamples = 1\nvalue = [ 1.  0.]", shape="box"] ;
592 -> 594 ;
595 [label="gini = 0.0000\nsamples = 2\nvalue = [ 0.  2.]", shape="box"] ;
587 -> 595 ;
596 [label="gini = 0.0000\nsamples = 6\nvalue = [ 6.  0.]", shape="box"] ;
586 -> 596 ;
597 [label="X[60] <= 627.0000\ngini = 0.204142011834\nsamples = 26", shape="box"] ;
585 -> 597 ;
598 [label="gini = 0.0000\nsamples = 1\nvalue = [ 1.  0.]", shape="box"] ;
597 -> 598 ;
599 [label="X[67] <= 698.5000\ngini = 0.1472\nsamples = 25", shape="box"] ;
597 -> 599 ;
600 [label="gini = 0.0000\nsamples = 18\nvalue = [  0.  18.]", shape="box"] ;
599 -> 600 ;
601 [label="X[33] <= 1150.0000\ngini = 0.408163265306\nsamples = 7", shape="box"] ;
599 -> 601 ;
602 [label="gini = 0.0000\nsamples = 4\nvalue = [ 0.  4.]", shape="box"] ;
601 -> 602 ;
603 [label="X[5] <= 31.5800\ngini = 0.444444444444\nsamples = 3", shape="box"] ;
601 -> 603 ;
604 [label="X[61] <= 1633.5000\ngini = 0.5\nsamples = 2", shape="box"] ;
603 -> 604 ;
605 [label="gini = 0.0000\nsamples = 1\nvalue = [ 1.  0.]", shape="box"] ;
604 -> 605 ;
606 [label="gini = 0.0000\nsamples = 1\nvalue = [ 0.  1.]", shape="box"] ;
604 -> 606 ;
607 [label="gini = 0.0000\nsamples = 1\nvalue = [ 1.  0.]", shape="box"] ;
603 -> 607 ;
608 [label="X[68] <= 69.1400\ngini = 0.297520661157\nsamples = 11", shape="box"] ;
584 -> 608 ;
609 [label="gini = 0.0000\nsamples = 9\nvalue = [ 9.  0.]", shape="box"] ;
608 -> 609 ;
610 [label="gini = 0.0000\nsamples = 2\nvalue = [ 0.  2.]", shape="box"] ;
608 -> 610 ;
611 [label="X[29] <= 2015.0000\ngini = 0.352315689981\nsamples = 92", shape="box"] ;
421 -> 611 ;
612 [label="X[28] <= 66.3400\ngini = 0.355029585799\nsamples = 13", shape="box"] ;
611 -> 612 ;
613 [label="X[50] <= 65.5500\ngini = 0.48\nsamples = 5", shape="box"] ;
612 -> 613 ;
614 [label="gini = 0.0000\nsamples = 2\nvalue = [ 2.  0.]", shape="box"] ;
613 -> 614 ;
615 [label="X[20] <= 669.0000\ngini = 0.444444444444\nsamples = 3", shape="box"] ;
613 -> 615 ;
616 [label="gini = 0.0000\nsamples = 1\nvalue = [ 0.  1.]", shape="box"] ;
615 -> 616 ;
617 [label="gini = 0.5000\nsamples = 2\nvalue = [ 1.  1.]", shape="box"] ;
615 -> 617 ;
618 [label="gini = 0.0000\nsamples = 8\nvalue = [ 0.  8.]", shape="box"] ;
612 -> 618 ;
619 [label="X[15] <= 480.0000\ngini = 0.239705175453\nsamples = 79", shape="box"] ;
611 -> 619 ;
620 [label="X[63] <= 235.0000\ngini = 0.206442907742\nsamples = 77", shape="box"] ;
619 -> 620 ;
621 [label="X[23] <= 165.5000\ngini = 0.132653061224\nsamples = 70", shape="box"] ;
620 -> 621 ;
622 [label="X[33] <= 1084.0000\ngini = 0.5\nsamples = 2", shape="box"] ;
621 -> 622 ;
623 [label="gini = 0.0000\nsamples = 1\nvalue = [ 1.  0.]", shape="box"] ;
622 -> 623 ;
624 [label="gini = 0.0000\nsamples = 1\nvalue = [ 0.  1.]", shape="box"] ;
622 -> 624 ;
625 [label="X[27] <= 525.0000\ngini = 0.110726643599\nsamples = 68", shape="box"] ;
621 -> 625 ;
626 [label="X[24] <= 599.5000\ngini = 0.5\nsamples = 2", shape="box"] ;
625 -> 626 ;
627 [label="gini = 0.0000\nsamples = 1\nvalue = [ 1.  0.]", shape="box"] ;
626 -> 627 ;
628 [label="gini = 0.0000\nsamples = 1\nvalue = [ 0.  1.]", shape="box"] ;
626 -> 628 ;
629 [label="X[2] <= 40.9200\ngini = 0.0867768595041\nsamples = 66", shape="box"] ;
625 -> 629 ;
630 [label="X[50] <= 64.0250\ngini = 0.32\nsamples = 15", shape="box"] ;
629 -> 630 ;
631 [label="X[15] <= 352.5000\ngini = 0.444444444444\nsamples = 3", shape="box"] ;
630 -> 631 ;
632 [label="gini = 0.0000\nsamples = 1\nvalue = [ 1.  0.]", shape="box"] ;
631 -> 632 ;
633 [label="gini = 0.0000\nsamples = 2\nvalue = [ 0.  2.]", shape="box"] ;
631 -> 633 ;
634 [label="X[37] <= 201.5000\ngini = 0.152777777778\nsamples = 12", shape="box"] ;
630 -> 634 ;
635 [label="gini = 0.5000\nsamples = 2\nvalue = [ 1.  1.]", shape="box"] ;
634 -> 635 ;
636 [label="gini = 0.0000\nsamples = 10\nvalue = [ 10.   0.]", shape="box"] ;
634 -> 636 ;
637 [label="gini = 0.0000\nsamples = 51\nvalue = [ 51.   0.]", shape="box"] ;
629 -> 637 ;
638 [label="X[32] <= 719.0000\ngini = 0.489795918367\nsamples = 7", shape="box"] ;
620 -> 638 ;
639 [label="gini = 0.0000\nsamples = 3\nvalue = [ 0.  3.]", shape="box"] ;
638 -> 639 ;
640 [label="X[28] <= 67.5850\ngini = 0.375\nsamples = 4", shape="box"] ;
638 -> 640 ;
641 [label="gini = 0.0000\nsamples = 1\nvalue = [ 0.  1.]", shape="box"] ;
640 -> 641 ;
642 [label="gini = 0.0000\nsamples = 3\nvalue = [ 3.  0.]", shape="box"] ;
640 -> 642 ;
643 [label="gini = 0.0000\nsamples = 2\nvalue = [ 0.  2.]", shape="box"] ;
619 -> 643 ;
644 [label="X[49] <= 2109.5000\ngini = 0.451079265964\nsamples = 422", shape="box"] ;
420 -> 644 ;
645 [label="X[24] <= 478.0000\ngini = 0.378545918367\nsamples = 280", shape="box"] ;
644 -> 645 ;
646 [label="X[48] <= 73.2050\ngini = 0.355029585799\nsamples = 13", shape="box"] ;
645 -> 646 ;
647 [label="X[34] <= 31.2600\ngini = 0.165289256198\nsamples = 11", shape="box"] ;
646 -> 647 ;
648 [label="gini = 0.0000\nsamples = 1\nvalue = [ 0.  1.]", shape="box"] ;
647 -> 648 ;
649 [label="gini = 0.0000\nsamples = 10\nvalue = [ 10.   0.]", shape="box"] ;
647 -> 649 ;
650 [label="gini = 0.0000\nsamples = 2\nvalue = [ 0.  2.]", shape="box"] ;
646 -> 650 ;
651 [label="X[30] <= 71.1750\ngini = 0.352536857019\nsamples = 267", shape="box"] ;
645 -> 651 ;
652 [label="X[13] <= 1225.5000\ngini = 0.296953094963\nsamples = 204", shape="box"] ;
651 -> 652 ;
653 [label="X[57] <= 219.5000\ngini = 0.357777777778\nsamples = 150", shape="box"] ;
652 -> 653 ;
654 [label="X[49] <= 2052.5000\ngini = 0.30704775023\nsamples = 132", shape="box"] ;
653 -> 654 ;
655 [label="X[38] <= 85.0000\ngini = 0.258546394714\nsamples = 118", shape="box"] ;
654 -> 655 ;
656 [label="X[42] <= 39.6400\ngini = 0.465373961219\nsamples = 19", shape="box"] ;
655 -> 656 ;
657 [label="gini = 0.0000\nsamples = 4\nvalue = [ 4.  0.]", shape="box"] ;
656 -> 657 ;
658 [label="X[57] <= 169.5000\ngini = 0.32\nsamples = 15", shape="box"] ;
656 -> 658 ;
659 [label="X[36] <= 388.5000\ngini = 0.48\nsamples = 5", shape="box"] ;
658 -> 659 ;
660 [label="gini = 0.0000\nsamples = 2\nvalue = [ 0.  2.]", shape="box"] ;
659 -> 660 ;
661 [label="gini = 0.0000\nsamples = 3\nvalue = [ 3.  0.]", shape="box"] ;
659 -> 661 ;
662 [label="gini = 0.0000\nsamples = 10\nvalue = [  0.  10.]", shape="box"] ;
658 -> 662 ;
663 [label="X[54] <= 37.8450\ngini = 0.197530864198\nsamples = 99", shape="box"] ;
655 -> 663 ;
664 [label="X[77] <= 178.5000\ngini = 0.15572657311\nsamples = 94", shape="box"] ;
663 -> 664 ;
665 [label="X[30] <= 65.6550\ngini = 0.391111111111\nsamples = 15", shape="box"] ;
664 -> 665 ;
666 [label="gini = 0.0000\nsamples = 8\nvalue = [ 0.  8.]", shape="box"] ;
665 -> 666 ;
667 [label="X[60] <= 735.0000\ngini = 0.489795918367\nsamples = 7", shape="box"] ;
665 -> 667 ;
668 [label="gini = 0.0000\nsamples = 3\nvalue = [ 3.  0.]", shape="box"] ;
667 -> 668 ;
669 [label="X[1] <= 1728.5000\ngini = 0.375\nsamples = 4", shape="box"] ;
667 -> 669 ;
670 [label="gini = 0.0000\nsamples = 1\nvalue = [ 1.  0.]", shape="box"] ;
669 -> 670 ;
671 [label="gini = 0.0000\nsamples = 3\nvalue = [ 0.  3.]", shape="box"] ;
669 -> 671 ;
672 [label="X[15] <= 496.5000\ngini = 0.0961384393527\nsamples = 79", shape="box"] ;
664 -> 672 ;
673 [label="X[70] <= 78.5600\ngini = 0.0739644970414\nsamples = 78", shape="box"] ;
672 -> 673 ;
674 [label="X[23] <= 151.5000\ngini = 0.0277722674073\nsamples = 71", shape="box"] ;
673 -> 674 ;
675 [label="X[51] <= 309.0000\ngini = 0.444444444444\nsamples = 3", shape="box"] ;
674 -> 675 ;
676 [label="gini = 0.0000\nsamples = 1\nvalue = [ 1.  0.]", shape="box"] ;
675 -> 676 ;
677 [label="gini = 0.0000\nsamples = 2\nvalue = [ 0.  2.]", shape="box"] ;
675 -> 677 ;
678 [label="gini = 0.0000\nsamples = 68\nvalue = [  0.  68.]", shape="box"] ;
674 -> 678 ;
679 [label="X[37] <= 194.0000\ngini = 0.408163265306\nsamples = 7", shape="box"] ;
673 -> 679 ;
680 [label="gini = 0.0000\nsamples = 2\nvalue = [ 2.  0.]", shape="box"] ;
679 -> 680 ;
681 [label="gini = 0.0000\nsamples = 5\nvalue = [ 0.  5.]", shape="box"] ;
679 -> 681 ;
682 [label="gini = 0.0000\nsamples = 1\nvalue = [ 1.  0.]", shape="box"] ;
672 -> 682 ;
683 [label="X[30] <= 64.3750\ngini = 0.48\nsamples = 5", shape="box"] ;
663 -> 683 ;
684 [label="gini = 0.0000\nsamples = 2\nvalue = [ 0.  2.]", shape="box"] ;
683 -> 684 ;
685 [label="gini = 0.0000\nsamples = 3\nvalue = [ 3.  0.]", shape="box"] ;
683 -> 685 ;
686 [label="X[7] <= 669.0000\ngini = 0.5\nsamples = 14", shape="box"] ;
654 -> 686 ;
687 [label="gini = 0.0000\nsamples = 5\nvalue = [ 5.  0.]", shape="box"] ;
686 -> 687 ;
688 [label="X[33] <= 1152.0000\ngini = 0.345679012346\nsamples = 9", shape="box"] ;
686 -> 688 ;
689 [label="gini = 0.0000\nsamples = 7\nvalue = [ 0.  7.]", shape="box"] ;
688 -> 689 ;
690 [label="gini = 0.0000\nsamples = 2\nvalue = [ 2.  0.]", shape="box"] ;
688 -> 690 ;
691 [label="X[76] <= 481.0000\ngini = 0.493827160494\nsamples = 18", shape="box"] ;
653 -> 691 ;
692 [label="X[7] <= 828.5000\ngini = 0.21875\nsamples = 8", shape="box"] ;
691 -> 692 ;
693 [label="gini = 0.0000\nsamples = 7\nvalue = [ 7.  0.]", shape="box"] ;
692 -> 693 ;
694 [label="gini = 0.0000\nsamples = 1\nvalue = [ 0.  1.]", shape="box"] ;
692 -> 694 ;
695 [label="X[5] <= 31.6350\ngini = 0.42\nsamples = 10", shape="box"] ;
691 -> 695 ;
696 [label="X[21] <= 1757.5000\ngini = 0.48\nsamples = 5", shape="box"] ;
695 -> 696 ;
697 [label="X[13] <= 1116.0000\ngini = 0.5\nsamples = 4", shape="box"] ;
696 -> 697 ;
698 [label="X[45] <= 30.5900\ngini = 0.5\nsamples = 2", shape="box"] ;
697 -> 698 ;
699 [label="gini = 0.0000\nsamples = 1\nvalue = [ 0.  1.]", shape="box"] ;
698 -> 699 ;
700 [label="gini = 0.0000\nsamples = 1\nvalue = [ 1.  0.]", shape="box"] ;
698 -> 700 ;
701 [label="X[75] <= 421.0000\ngini = 0.5\nsamples = 2", shape="box"] ;
697 -> 701 ;
702 [label="gini = 0.0000\nsamples = 1\nvalue = [ 1.  0.]", shape="box"] ;
701 -> 702 ;
703 [label="gini = 0.0000\nsamples = 1\nvalue = [ 0.  1.]", shape="box"] ;
701 -> 703 ;
704 [label="gini = 0.0000\nsamples = 1\nvalue = [ 1.  0.]", shape="box"] ;
696 -> 704 ;
705 [label="gini = 0.0000\nsamples = 5\nvalue = [ 0.  5.]", shape="box"] ;
695 -> 705 ;
706 [label="X[57] <= 143.5000\ngini = 0.0713305898491\nsamples = 54", shape="box"] ;
652 -> 706 ;
707 [label="gini = 0.0000\nsamples = 1\nvalue = [ 1.  0.]", shape="box"] ;
706 -> 707 ;
708 [label="X[53] <= 1148.5000\ngini = 0.0370238519046\nsamples = 53", shape="box"] ;
706 -> 708 ;
709 [label="gini = 0.0000\nsamples = 50\nvalue = [  0.  50.]", shape="box"] ;
708 -> 709 ;
710 [label="X[16] <= 504.0000\ngini = 0.444444444444\nsamples = 3", shape="box"] ;
708 -> 710 ;
711 [label="gini = 0.0000\nsamples = 2\nvalue = [ 0.  2.]", shape="box"] ;
710 -> 711 ;
712 [label="gini = 0.0000\nsamples = 1\nvalue = [ 1.  0.]", shape="box"] ;
710 -> 712 ;
713 [label="X[79] <= 507.0000\ngini = 0.471655328798\nsamples = 63", shape="box"] ;
651 -> 713 ;
714 [label="X[50] <= 70.5550\ngini = 0.124444444444\nsamples = 15", shape="box"] ;
713 -> 714 ;
715 [label="gini = 0.0000\nsamples = 12\nvalue = [  0.  12.]", shape="box"] ;
714 -> 715 ;
716 [label="X[6] <= 461.0000\ngini = 0.444444444444\nsamples = 3", shape="box"] ;
714 -> 716 ;
717 [label="gini = 0.0000\nsamples = 1\nvalue = [ 1.  0.]", shape="box"] ;
716 -> 717 ;
718 [label="gini = 0.0000\nsamples = 2\nvalue = [ 0.  2.]", shape="box"] ;
716 -> 718 ;
719 [label="X[72] <= 688.5000\ngini = 0.499131944444\nsamples = 48", shape="box"] ;
713 -> 719 ;
720 [label="gini = 0.0000\nsamples = 6\nvalue = [ 6.  0.]", shape="box"] ;
719 -> 720 ;
721 [label="X[8] <= 68.7400\ngini = 0.481859410431\nsamples = 42", shape="box"] ;
719 -> 721 ;
722 [label="X[54] <= 34.1850\ngini = 0.462809917355\nsamples = 22", shape="box"] ;
721 -> 722 ;
723 [label="X[11] <= 384.0000\ngini = 0.48\nsamples = 10", shape="box"] ;
722 -> 723 ;
724 [label="gini = 0.0000\nsamples = 5\nvalue = [ 0.  5.]", shape="box"] ;
723 -> 724 ;
725 [label="X[41] <= 1692.5000\ngini = 0.32\nsamples = 5", shape="box"] ;
723 -> 725 ;
726 [label="gini = 0.0000\nsamples = 3\nvalue = [ 3.  0.]", shape="box"] ;
725 -> 726 ;
727 [label="gini = 0.5000\nsamples = 2\nvalue = [ 1.  1.]", shape="box"] ;
725 -> 727 ;
728 [label="X[15] <= 446.5000\ngini = 0.277777777778\nsamples = 12", shape="box"] ;
722 -> 728 ;
729 [label="gini = 0.0000\nsamples = 9\nvalue = [ 9.  0.]", shape="box"] ;
728 -> 729 ;
730 [label="X[70] <= 71.6400\ngini = 0.444444444444\nsamples = 3", shape="box"] ;
728 -> 730 ;
731 [label="gini = 0.0000\nsamples = 2\nvalue = [ 0.  2.]", shape="box"] ;
730 -> 731 ;
732 [label="gini = 0.0000\nsamples = 1\nvalue = [ 1.  0.]", shape="box"] ;
730 -> 732 ;
733 [label="X[46] <= 417.5000\ngini = 0.255\nsamples = 20", shape="box"] ;
721 -> 733 ;
734 [label="X[29] <= 2400.5000\ngini = 0.444444444444\nsamples = 3", shape="box"] ;
733 -> 734 ;
735 [label="gini = 0.0000\nsamples = 1\nvalue = [ 0.  1.]", shape="box"] ;
734 -> 735 ;
736 [label="gini = 0.0000\nsamples = 2\nvalue = [ 2.  0.]", shape="box"] ;
734 -> 736 ;
737 [label="X[32] <= 666.0000\ngini = 0.110726643599\nsamples = 17", shape="box"] ;
733 -> 737 ;
738 [label="X[57] <= 136.5000\ngini = 0.444444444444\nsamples = 3", shape="box"] ;
737 -> 738 ;
739 [label="gini = 0.0000\nsamples = 1\nvalue = [ 0.  1.]", shape="box"] ;
738 -> 739 ;
740 [label="gini = 0.5000\nsamples = 2\nvalue = [ 1.  1.]", shape="box"] ;
738 -> 740 ;
741 [label="gini = 0.0000\nsamples = 14\nvalue = [  0.  14.]", shape="box"] ;
737 -> 741 ;
742 [label="X[35] <= 432.5000\ngini = 0.499107319976\nsamples = 142", shape="box"] ;
644 -> 742 ;
743 [label="X[58] <= 95.5000\ngini = 0.482421875\nsamples = 96", shape="box"] ;
742 -> 743 ;
744 [label="X[33] <= 1038.5000\ngini = 0.244897959184\nsamples = 28", shape="box"] ;
743 -> 744 ;
745 [label="X[57] <= 195.5000\ngini = 0.489795918367\nsamples = 7", shape="box"] ;
744 -> 745 ;
746 [label="gini = 0.0000\nsamples = 4\nvalue = [ 4.  0.]", shape="box"] ;
745 -> 746 ;
747 [label="gini = 0.0000\nsamples = 3\nvalue = [ 0.  3.]", shape="box"] ;
745 -> 747 ;
748 [label="gini = 0.0000\nsamples = 21\nvalue = [  0.  21.]", shape="box"] ;
744 -> 748 ;
749 [label="X[9] <= 2226.5000\ngini = 0.499567474048\nsamples = 68", shape="box"] ;
743 -> 749 ;
750 [label="X[67] <= 608.5000\ngini = 0.449380165289\nsamples = 44", shape="box"] ;
749 -> 750 ;
751 [label="X[0] <= 797.0000\ngini = 0.14201183432\nsamples = 13", shape="box"] ;
750 -> 751 ;
752 [label="gini = 0.0000\nsamples = 11\nvalue = [ 11.   0.]", shape="box"] ;
751 -> 752 ;
753 [label="X[63] <= 210.0000\ngini = 0.5\nsamples = 2", shape="box"] ;
751 -> 753 ;
754 [label="gini = 0.0000\nsamples = 1\nvalue = [ 0.  1.]", shape="box"] ;
753 -> 754 ;
755 [label="gini = 0.0000\nsamples = 1\nvalue = [ 1.  0.]", shape="box"] ;
753 -> 755 ;
756 [label="X[8] <= 72.4550\ngini = 0.495317377732\nsamples = 31", shape="box"] ;
750 -> 756 ;
757 [label="X[33] <= 1066.5000\ngini = 0.4928\nsamples = 25", shape="box"] ;
756 -> 757 ;
758 [label="gini = 0.0000\nsamples = 7\nvalue = [ 0.  7.]", shape="box"] ;
757 -> 758 ;
759 [label="X[72] <= 738.5000\ngini = 0.475308641975\nsamples = 18", shape="box"] ;
757 -> 759 ;
760 [label="X[16] <= 469.0000\ngini = 0.297520661157\nsamples = 11", shape="box"] ;
759 -> 760 ;
761 [label="gini = 0.0000\nsamples = 6\nvalue = [ 6.  0.]", shape="box"] ;
760 -> 761 ;
762 [label="X[44] <= 535.5000\ngini = 0.48\nsamples = 5", shape="box"] ;
760 -> 762 ;
763 [label="X[13] <= 1132.5000\ngini = 0.375\nsamples = 4", shape="box"] ;
762 -> 763 ;
764 [label="gini = 0.5000\nsamples = 2\nvalue = [ 1.  1.]", shape="box"] ;
763 -> 764 ;
765 [label="gini = 0.0000\nsamples = 2\nvalue = [ 2.  0.]", shape="box"] ;
763 -> 765 ;
766 [label="gini = 0.0000\nsamples = 1\nvalue = [ 0.  1.]", shape="box"] ;
762 -> 766 ;
767 [label="X[0] <= 728.5000\ngini = 0.408163265306\nsamples = 7", shape="box"] ;
759 -> 767 ;
768 [label="X[50] <= 69.5850\ngini = 0.5\nsamples = 4", shape="box"] ;
767 -> 768 ;
769 [label="X[35] <= 360.5000\ngini = 0.444444444444\nsamples = 3", shape="box"] ;
768 -> 769 ;
770 [label="gini = 0.5000\nsamples = 2\nvalue = [ 1.  1.]", shape="box"] ;
769 -> 770 ;
771 [label="gini = 0.0000\nsamples = 1\nvalue = [ 1.  0.]", shape="box"] ;
769 -> 771 ;
772 [label="gini = 0.0000\nsamples = 1\nvalue = [ 0.  1.]", shape="box"] ;
768 -> 772 ;
773 [label="gini = 0.0000\nsamples = 3\nvalue = [ 0.  3.]", shape="box"] ;
767 -> 773 ;
774 [label="gini = 0.0000\nsamples = 6\nvalue = [ 6.  0.]", shape="box"] ;
756 -> 774 ;
775 [label="X[63] <= 219.0000\ngini = 0.375\nsamples = 24", shape="box"] ;
749 -> 775 ;
776 [label="X[79] <= 671.5000\ngini = 0.244897959184\nsamples = 21", shape="box"] ;
775 -> 776 ;
777 [label="X[8] <= 66.0300\ngini = 0.18\nsamples = 20", shape="box"] ;
776 -> 777 ;
778 [label="X[62] <= 43.3750\ngini = 0.48\nsamples = 5", shape="box"] ;
777 -> 778 ;
779 [label="gini = 0.0000\nsamples = 2\nvalue = [ 2.  0.]", shape="box"] ;
778 -> 779 ;
780 [label="gini = 0.0000\nsamples = 3\nvalue = [ 0.  3.]", shape="box"] ;
778 -> 780 ;
781 [label="gini = 0.0000\nsamples = 15\nvalue = [  0.  15.]", shape="box"] ;
777 -> 781 ;
782 [label="gini = 0.0000\nsamples = 1\nvalue = [ 1.  0.]", shape="box"] ;
776 -> 782 ;
783 [label="gini = 0.0000\nsamples = 3\nvalue = [ 3.  0.]", shape="box"] ;
775 -> 783 ;
784 [label="X[44] <= 458.5000\ngini = 0.363894139887\nsamples = 46", shape="box"] ;
742 -> 784 ;
785 [label="X[58] <= 105.5000\ngini = 0.444444444444\nsamples = 6", shape="box"] ;
784 -> 785 ;
786 [label="gini = 0.0000\nsamples = 3\nvalue = [ 0.  3.]", shape="box"] ;
785 -> 786 ;
787 [label="X[39] <= 683.5000\ngini = 0.444444444444\nsamples = 3", shape="box"] ;
785 -> 787 ;
788 [label="gini = 0.0000\nsamples = 2\nvalue = [ 2.  0.]", shape="box"] ;
787 -> 788 ;
789 [label="gini = 0.0000\nsamples = 1\nvalue = [ 0.  1.]", shape="box"] ;
787 -> 789 ;
790 [label="X[57] <= 228.0000\ngini = 0.28875\nsamples = 40", shape="box"] ;
784 -> 790 ;
791 [label="X[68] <= 70.9500\ngini = 0.137174211248\nsamples = 27", shape="box"] ;
790 -> 791 ;
792 [label="gini = 0.0000\nsamples = 20\nvalue = [ 20.   0.]", shape="box"] ;
791 -> 792 ;
793 [label="X[34] <= 37.2950\ngini = 0.408163265306\nsamples = 7", shape="box"] ;
791 -> 793 ;
794 [label="gini = 0.0000\nsamples = 5\nvalue = [ 5.  0.]", shape="box"] ;
793 -> 794 ;
795 [label="gini = 0.0000\nsamples = 2\nvalue = [ 0.  2.]", shape="box"] ;
793 -> 795 ;
796 [label="X[15] <= 440.0000\ngini = 0.473372781065\nsamples = 13", shape="box"] ;
790 -> 796 ;
797 [label="X[1] <= 1687.0000\ngini = 0.32\nsamples = 10", shape="box"] ;
796 -> 797 ;
798 [label="X[1] <= 1648.5000\ngini = 0.444444444444\nsamples = 3", shape="box"] ;
797 -> 798 ;
799 [label="gini = 0.0000\nsamples = 1\nvalue = [ 0.  1.]", shape="box"] ;
798 -> 799 ;
800 [label="X[55] <= 435.5000\ngini = 0.5\nsamples = 2", shape="box"] ;
798 -> 800 ;
801 [label="gini = 0.0000\nsamples = 1\nvalue = [ 0.  1.]", shape="box"] ;
800 -> 801 ;
802 [label="gini = 0.0000\nsamples = 1\nvalue = [ 1.  0.]", shape="box"] ;
800 -> 802 ;
803 [label="gini = 0.0000\nsamples = 7\nvalue = [ 7.  0.]", shape="box"] ;
797 -> 803 ;
804 [label="gini = 0.0000\nsamples = 3\nvalue = [ 0.  3.]", shape="box"] ;
796 -> 804 ;
805 [label="X[49] <= 2028.5000\ngini = 0.354840391151\nsamples = 438", shape="box"] ;
419 -> 805 ;
806 [label="X[78] <= 72.5000\ngini = 0.178136830719\nsamples = 172", shape="box"] ;
805 -> 806 ;
807 [label="X[34] <= 35.8050\ngini = 0.32\nsamples = 5", shape="box"] ;
806 -> 807 ;
808 [label="gini = 0.0000\nsamples = 4\nvalue = [ 4.  0.]", shape="box"] ;
807 -> 808 ;
809 [label="gini = 0.0000\nsamples = 1\nvalue = [ 0.  1.]", shape="box"] ;
807 -> 809 ;
810 [label="X[18] <= 103.5000\ngini = 0.143569149127\nsamples = 167", shape="box"] ;
806 -> 810 ;
811 [label="X[37] <= 196.5000\ngini = 0.387811634349\nsamples = 38", shape="box"] ;
810 -> 811 ;
812 [label="X[75] <= 405.5000\ngini = 0.444444444444\nsamples = 6", shape="box"] ;
811 -> 812 ;
813 [label="gini = 0.0000\nsamples = 4\nvalue = [ 4.  0.]", shape="box"] ;
812 -> 813 ;
814 [label="gini = 0.0000\nsamples = 2\nvalue = [ 0.  2.]", shape="box"] ;
812 -> 814 ;
815 [label="X[48] <= 72.1900\ngini = 0.3046875\nsamples = 32", shape="box"] ;
811 -> 815 ;
816 [label="X[68] <= 73.0300\ngini = 0.197530864198\nsamples = 27", shape="box"] ;
815 -> 816 ;
817 [label="X[75] <= 431.5000\ngini = 0.14201183432\nsamples = 26", shape="box"] ;
816 -> 817 ;
818 [label="gini = 0.0000\nsamples = 20\nvalue = [  0.  20.]", shape="box"] ;
817 -> 818 ;
819 [label="X[70] <= 66.6950\ngini = 0.444444444444\nsamples = 6", shape="box"] ;
817 -> 819 ;
820 [label="gini = 0.0000\nsamples = 2\nvalue = [ 2.  0.]", shape="box"] ;
819 -> 820 ;
821 [label="gini = 0.0000\nsamples = 4\nvalue = [ 0.  4.]", shape="box"] ;
819 -> 821 ;
822 [label="gini = 0.0000\nsamples = 1\nvalue = [ 1.  0.]", shape="box"] ;
816 -> 822 ;
823 [label="X[47] <= 563.5000\ngini = 0.48\nsamples = 5", shape="box"] ;
815 -> 823 ;
824 [label="gini = 0.0000\nsamples = 2\nvalue = [ 2.  0.]", shape="box"] ;
823 -> 824 ;
825 [label="X[9] <= 2626.0000\ngini = 0.444444444444\nsamples = 3", shape="box"] ;
823 -> 825 ;
826 [label="gini = 0.0000\nsamples = 1\nvalue = [ 0.  1.]", shape="box"] ;
825 -> 826 ;
827 [label="gini = 0.5000\nsamples = 2\nvalue = [ 1.  1.]", shape="box"] ;
825 -> 827 ;
828 [label="X[48] <= 74.3050\ngini = 0.0454299621417\nsamples = 129", shape="box"] ;
810 -> 828 ;
829 [label="X[62] <= 39.7700\ngini = 0.0157470395566\nsamples = 126", shape="box"] ;
828 -> 829 ;
830 [label="X[13] <= 1399.0000\ngini = 0.32\nsamples = 5", shape="box"] ;
829 -> 830 ;
831 [label="gini = 0.0000\nsamples = 4\nvalue = [ 0.  4.]", shape="box"] ;
830 -> 831 ;
832 [label="gini = 0.0000\nsamples = 1\nvalue = [ 1.  0.]", shape="box"] ;
830 -> 832 ;
833 [label="gini = 0.0000\nsamples = 121\nvalue = [   0.  121.]", shape="box"] ;
829 -> 833 ;
834 [label="X[0] <= 868.5000\ngini = 0.444444444444\nsamples = 3", shape="box"] ;
828 -> 834 ;
835 [label="gini = 0.0000\nsamples = 1\nvalue = [ 0.  1.]", shape="box"] ;
834 -> 835 ;
836 [label="gini = 0.0000\nsamples = 2\nvalue = [ 2.  0.]", shape="box"] ;
834 -> 836 ;
837 [label="X[28] <= 71.1650\ngini = 0.432132963989\nsamples = 266", shape="box"] ;
805 -> 837 ;
838 [label="X[69] <= 2058.5000\ngini = 0.396342236306\nsamples = 235", shape="box"] ;
837 -> 838 ;
839 [label="X[10] <= 74.9400\ngini = 0.49560546875\nsamples = 64", shape="box"] ;
838 -> 839 ;
840 [label="X[63] <= 172.0000\ngini = 0.465373961219\nsamples = 38", shape="box"] ;
839 -> 840 ;
841 [label="X[8] <= 63.5650\ngini = 0.152777777778\nsamples = 12", shape="box"] ;
840 -> 841 ;
842 [label="gini = 0.0000\nsamples = 1\nvalue = [ 0.  1.]", shape="box"] ;
841 -> 842 ;
843 [label="gini = 0.0000\nsamples = 11\nvalue = [ 11.   0.]", shape="box"] ;
841 -> 843 ;
844 [label="X[5] <= 36.1150\ngini = 0.5\nsamples = 26", shape="box"] ;
840 -> 844 ;
845 [label="X[44] <= 533.5000\ngini = 0.444444444444\nsamples = 18", shape="box"] ;
844 -> 845 ;
846 [label="X[35] <= 412.5000\ngini = 0.5\nsamples = 10", shape="box"] ;
845 -> 846 ;
847 [label="gini = 0.0000\nsamples = 3\nvalue = [ 3.  0.]", shape="box"] ;
846 -> 847 ;
848 [label="X[21] <= 1933.0000\ngini = 0.408163265306\nsamples = 7", shape="box"] ;
846 -> 848 ;
849 [label="X[5] <= 31.6750\ngini = 0.5\nsamples = 4", shape="box"] ;
848 -> 849 ;
850 [label="gini = 0.5000\nsamples = 2\nvalue = [ 1.  1.]", shape="box"] ;
849 -> 850 ;
851 [label="gini = 0.5000\nsamples = 2\nvalue = [ 1.  1.]", shape="box"] ;
849 -> 851 ;
852 [label="gini = 0.0000\nsamples = 3\nvalue = [ 0.  3.]", shape="box"] ;
848 -> 852 ;
853 [label="X[18] <= 157.0000\ngini = 0.21875\nsamples = 8", shape="box"] ;
845 -> 853 ;
854 [label="gini = 0.0000\nsamples = 7\nvalue = [ 0.  7.]", shape="box"] ;
853 -> 854 ;
855 [label="gini = 0.0000\nsamples = 1\nvalue = [ 1.  0.]", shape="box"] ;
853 -> 855 ;
856 [label="X[13] <= 1216.5000\ngini = 0.21875\nsamples = 8", shape="box"] ;
844 -> 856 ;
857 [label="gini = 0.0000\nsamples = 1\nvalue = [ 0.  1.]", shape="box"] ;
856 -> 857 ;
858 [label="gini = 0.0000\nsamples = 7\nvalue = [ 7.  0.]", shape="box"] ;
856 -> 858 ;
859 [label="X[52] <= 697.0000\ngini = 0.310650887574\nsamples = 26", shape="box"] ;
839 -> 859 ;
860 [label="gini = 0.0000\nsamples = 3\nvalue = [ 3.  0.]", shape="box"] ;
859 -> 860 ;
861 [label="X[23] <= 175.0000\ngini = 0.158790170132\nsamples = 23", shape="box"] ;
859 -> 861 ;
862 [label="X[68] <= 68.6100\ngini = 0.444444444444\nsamples = 6", shape="box"] ;
861 -> 862 ;
863 [label="gini = 0.0000\nsamples = 4\nvalue = [ 0.  4.]", shape="box"] ;
862 -> 863 ;
864 [label="gini = 0.0000\nsamples = 2\nvalue = [ 2.  0.]", shape="box"] ;
862 -> 864 ;
865 [label="gini = 0.0000\nsamples = 17\nvalue = [  0.  17.]", shape="box"] ;
861 -> 865 ;
866 [label="X[72] <= 629.5000\ngini = 0.325570260935\nsamples = 171", shape="box"] ;
838 -> 866 ;
867 [label="X[10] <= 77.6250\ngini = 0.408163265306\nsamples = 7", shape="box"] ;
866 -> 867 ;
868 [label="gini = 0.0000\nsamples = 5\nvalue = [ 5.  0.]", shape="box"] ;
867 -> 868 ;
869 [label="gini = 0.0000\nsamples = 2\nvalue = [ 0.  2.]", shape="box"] ;
867 -> 869 ;
870 [label="X[30] <= 72.4500\ngini = 0.298929208804\nsamples = 164", shape="box"] ;
866 -> 870 ;
871 [label="X[50] <= 71.0850\ngini = 0.247705112961\nsamples = 145", shape="box"] ;
870 -> 871 ;
872 [label="X[32] <= 882.0000\ngini = 0.21468868071\nsamples = 139", shape="box"] ;
871 -> 872 ;
873 [label="X[46] <= 461.5000\ngini = 0.196258650519\nsamples = 136", shape="box"] ;
872 -> 873 ;
874 [label="X[12] <= 757.5000\ngini = 0.0777940102264\nsamples = 74", shape="box"] ;
873 -> 874 ;
875 [label="gini = 0.0000\nsamples = 1\nvalue = [ 1.  0.]", shape="box"] ;
874 -> 875 ;
876 [label="X[1] <= 2198.5000\ngini = 0.0532933008069\nsamples = 73", shape="box"] ;
874 -> 876 ;
877 [label="gini = 0.0000\nsamples = 68\nvalue = [  0.  68.]", shape="box"] ;
876 -> 877 ;
878 [label="X[62] <= 44.5350\ngini = 0.48\nsamples = 5", shape="box"] ;
876 -> 878 ;
879 [label="gini = 0.0000\nsamples = 3\nvalue = [ 0.  3.]", shape="box"] ;
878 -> 879 ;
880 [label="gini = 0.0000\nsamples = 2\nvalue = [ 2.  0.]", shape="box"] ;
878 -> 880 ;
881 [label="X[37] <= 220.5000\ngini = 0.312174817898\nsamples = 62", shape="box"] ;
873 -> 881 ;
882 [label="X[15] <= 437.0000\ngini = 0.145429362881\nsamples = 38", shape="box"] ;
881 -> 882 ;
883 [label="X[56] <= 482.5000\ngini = 0.5\nsamples = 4", shape="box"] ;
882 -> 883 ;
884 [label="X[11] <= 383.5000\ngini = 0.5\nsamples = 2", shape="box"] ;
883 -> 884 ;
885 [label="gini = 0.0000\nsamples = 1\nvalue = [ 1.  0.]", shape="box"] ;
884 -> 885 ;
886 [label="gini = 0.0000\nsamples = 1\nvalue = [ 0.  1.]", shape="box"] ;
884 -> 886 ;
887 [label="X[30] <= 69.4000\ngini = 0.5\nsamples = 2", shape="box"] ;
883 -> 887 ;
888 [label="gini = 0.0000\nsamples = 1\nvalue = [ 1.  0.]", shape="box"] ;
887 -> 888 ;
889 [label="gini = 0.0000\nsamples = 1\nvalue = [ 0.  1.]", shape="box"] ;
887 -> 889 ;
890 [label="X[5] <= 32.4850\ngini = 0.0570934256055\nsamples = 34", shape="box"] ;
882 -> 890 ;
891 [label="X[62] <= 44.0500\ngini = 0.444444444444\nsamples = 3", shape="box"] ;
890 -> 891 ;
892 [label="gini = 0.0000\nsamples = 2\nvalue = [ 0.  2.]", shape="box"] ;
891 -> 892 ;
893 [label="gini = 0.0000\nsamples = 1\nvalue = [ 1.  0.]", shape="box"] ;
891 -> 893 ;
894 [label="gini = 0.0000\nsamples = 31\nvalue = [  0.  31.]", shape="box"] ;
890 -> 894 ;
895 [label="X[54] <= 33.4850\ngini = 0.46875\nsamples = 24", shape="box"] ;
881 -> 895 ;
896 [label="gini = 0.0000\nsamples = 4\nvalue = [ 4.  0.]", shape="box"] ;
895 -> 896 ;
897 [label="X[8] <= 69.8600\ngini = 0.375\nsamples = 20", shape="box"] ;
895 -> 897 ;
898 [label="X[42] <= 44.2900\ngini = 0.231111111111\nsamples = 15", shape="box"] ;
897 -> 898 ;
899 [label="X[27] <= 570.5000\ngini = 0.132653061224\nsamples = 14", shape="box"] ;
898 -> 899 ;
900 [label="X[65] <= 32.6650\ngini = 0.5\nsamples = 2", shape="box"] ;
899 -> 900 ;
901 [label="gini = 0.0000\nsamples = 1\nvalue = [ 0.  1.]", shape="box"] ;
900 -> 901 ;
902 [label="gini = 0.0000\nsamples = 1\nvalue = [ 1.  0.]", shape="box"] ;
900 -> 902 ;
903 [label="gini = 0.0000\nsamples = 12\nvalue = [  0.  12.]", shape="box"] ;
899 -> 903 ;
904 [label="gini = 0.0000\nsamples = 1\nvalue = [ 1.  0.]", shape="box"] ;
898 -> 904 ;
905 [label="X[1] <= 2109.5000\ngini = 0.48\nsamples = 5", shape="box"] ;
897 -> 905 ;
906 [label="gini = 0.0000\nsamples = 2\nvalue = [ 2.  0.]", shape="box"] ;
905 -> 906 ;
907 [label="X[45] <= 34.2100\ngini = 0.444444444444\nsamples = 3", shape="box"] ;
905 -> 907 ;
908 [label="gini = 0.0000\nsamples = 1\nvalue = [ 0.  1.]", shape="box"] ;
907 -> 908 ;
909 [label="gini = 0.5000\nsamples = 2\nvalue = [ 1.  1.]", shape="box"] ;
907 -> 909 ;
910 [label="X[60] <= 766.5000\ngini = 0.444444444444\nsamples = 3", shape="box"] ;
872 -> 910 ;
911 [label="gini = 0.0000\nsamples = 2\nvalue = [ 2.  0.]", shape="box"] ;
910 -> 911 ;
912 [label="gini = 0.0000\nsamples = 1\nvalue = [ 0.  1.]", shape="box"] ;
910 -> 912 ;
913 [label="X[42] <= 43.3850\ngini = 0.444444444444\nsamples = 6", shape="box"] ;
871 -> 913 ;
914 [label="gini = 0.0000\nsamples = 4\nvalue = [ 4.  0.]", shape="box"] ;
913 -> 914 ;
915 [label="gini = 0.0000\nsamples = 2\nvalue = [ 0.  2.]", shape="box"] ;
913 -> 915 ;
916 [label="X[65] <= 34.1350\ngini = 0.498614958449\nsamples = 19", shape="box"] ;
870 -> 916 ;
917 [label="gini = 0.0000\nsamples = 7\nvalue = [ 0.  7.]", shape="box"] ;
916 -> 917 ;
918 [label="X[66] <= 492.0000\ngini = 0.375\nsamples = 12", shape="box"] ;
916 -> 918 ;
919 [label="X[18] <= 115.0000\ngini = 0.18\nsamples = 10", shape="box"] ;
918 -> 919 ;
920 [label="X[64] <= 578.5000\ngini = 0.444444444444\nsamples = 3", shape="box"] ;
919 -> 920 ;
921 [label="gini = 0.0000\nsamples = 1\nvalue = [ 0.  1.]", shape="box"] ;
920 -> 921 ;
922 [label="gini = 0.0000\nsamples = 2\nvalue = [ 2.  0.]", shape="box"] ;
920 -> 922 ;
923 [label="gini = 0.0000\nsamples = 7\nvalue = [ 7.  0.]", shape="box"] ;
919 -> 923 ;
924 [label="gini = 0.0000\nsamples = 2\nvalue = [ 0.  2.]", shape="box"] ;
918 -> 924 ;
925 [label="X[43] <= 185.5000\ngini = 0.457856399584\nsamples = 31", shape="box"] ;
837 -> 925 ;
926 [label="X[20] <= 829.5000\ngini = 0.456747404844\nsamples = 17", shape="box"] ;
925 -> 926 ;
927 [label="gini = 0.0000\nsamples = 7\nvalue = [ 0.  7.]", shape="box"] ;
926 -> 927 ;
928 [label="X[53] <= 1075.5000\ngini = 0.48\nsamples = 10", shape="box"] ;
926 -> 928 ;
929 [label="gini = 0.0000\nsamples = 4\nvalue = [ 4.  0.]", shape="box"] ;
928 -> 929 ;
930 [label="X[55] <= 368.0000\ngini = 0.444444444444\nsamples = 6", shape="box"] ;
928 -> 930 ;
931 [label="gini = 0.0000\nsamples = 3\nvalue = [ 0.  3.]", shape="box"] ;
930 -> 931 ;
932 [label="X[6] <= 504.0000\ngini = 0.444444444444\nsamples = 3", shape="box"] ;
930 -> 932 ;
933 [label="gini = 0.0000\nsamples = 1\nvalue = [ 1.  0.]", shape="box"] ;
932 -> 933 ;
934 [label="gini = 0.5000\nsamples = 2\nvalue = [ 1.  1.]", shape="box"] ;
932 -> 934 ;
935 [label="gini = 0.0000\nsamples = 14\nvalue = [ 14.   0.]", shape="box"] ;
925 -> 935 ;
936 [label="X[0] <= 806.5000\ngini = 0.349228714686\nsamples = 2870", shape="box"] ;
0 -> 936 ;
937 [label="X[70] <= 71.5600\ngini = 0.236059880622\nsamples = 1770", shape="box"] ;
936 -> 937 ;
938 [label="X[22] <= 43.7650\ngini = 0.180918879641\nsamples = 1392", shape="box"] ;
937 -> 938 ;
939 [label="X[40] <= 835.0000\ngini = 0.261108748164\nsamples = 706", shape="box"] ;
938 -> 939 ;
940 [label="X[9] <= 2197.0000\ngini = 0.364949062833\nsamples = 279", shape="box"] ;
939 -> 940 ;
941 [label="X[11] <= 427.0000\ngini = 0.291694214876\nsamples = 220", shape="box"] ;
940 -> 941 ;
942 [label="X[36] <= 325.0000\ngini = 0.268288919747\nsamples = 213", shape="box"] ;
941 -> 942 ;
943 [label="X[61] <= 1650.0000\ngini = 0.375\nsamples = 4", shape="box"] ;
942 -> 943 ;
944 [label="gini = 0.0000\nsamples = 1\nvalue = [ 1.  0.]", shape="box"] ;
943 -> 944 ;
945 [label="gini = 0.0000\nsamples = 3\nvalue = [ 0.  3.]", shape="box"] ;
943 -> 945 ;
946 [label="X[77] <= 250.0000\ngini = 0.252649893546\nsamples = 209", shape="box"] ;
942 -> 946 ;
947 [label="X[57] <= 317.0000\ngini = 0.222563515202\nsamples = 196", shape="box"] ;
946 -> 947 ;
948 [label="X[33] <= 918.0000\ngini = 0.203832131795\nsamples = 191", shape="box"] ;
947 -> 948 ;
949 [label="gini = 0.0000\nsamples = 1\nvalue = [ 0.  1.]", shape="box"] ;
948 -> 949 ;
950 [label="X[76] <= 422.0000\ngini = 0.196620498615\nsamples = 190", shape="box"] ;
948 -> 950 ;
951 [label="X[32] <= 718.5000\ngini = 0.3432\nsamples = 50", shape="box"] ;
950 -> 951 ;
952 [label="X[10] <= 68.5450\ngini = 0.48347107438\nsamples = 22", shape="box"] ;
951 -> 952 ;
953 [label="X[31] <= 343.0000\ngini = 0.432132963989\nsamples = 19", shape="box"] ;
952 -> 953 ;
954 [label="X[48] <= 68.3700\ngini = 0.46875\nsamples = 8", shape="box"] ;
953 -> 954 ;
955 [label="gini = 0.0000\nsamples = 4\nvalue = [ 0.  4.]", shape="box"] ;
954 -> 955 ;
956 [label="X[51] <= 368.0000\ngini = 0.375\nsamples = 4", shape="box"] ;
954 -> 956 ;
957 [label="gini = 0.0000\nsamples = 2\nvalue = [ 2.  0.]", shape="box"] ;
956 -> 957 ;
958 [label="X[36] <= 421.5000\ngini = 0.5\nsamples = 2", shape="box"] ;
956 -> 958 ;
959 [label="gini = 0.0000\nsamples = 1\nvalue = [ 0.  1.]", shape="box"] ;
958 -> 959 ;
960 [label="gini = 0.0000\nsamples = 1\nvalue = [ 1.  0.]", shape="box"] ;
958 -> 960 ;
961 [label="X[66] <= 477.5000\ngini = 0.165289256198\nsamples = 11", shape="box"] ;
953 -> 961 ;
962 [label="gini = 0.0000\nsamples = 9\nvalue = [ 9.  0.]", shape="box"] ;
961 -> 962 ;
963 [label="gini = 0.5000\nsamples = 2\nvalue = [ 1.  1.]", shape="box"] ;
961 -> 963 ;
964 [label="gini = 0.0000\nsamples = 3\nvalue = [ 0.  3.]", shape="box"] ;
952 -> 964 ;
965 [label="X[59] <= 625.0000\ngini = 0.132653061224\nsamples = 28", shape="box"] ;
951 -> 965 ;
966 [label="X[25] <= 30.4550\ngini = 0.0713305898491\nsamples = 27", shape="box"] ;
965 -> 966 ;
967 [label="X[66] <= 392.0000\ngini = 0.5\nsamples = 2", shape="box"] ;
966 -> 967 ;
968 [label="gini = 0.0000\nsamples = 1\nvalue = [ 0.  1.]", shape="box"] ;
967 -> 968 ;
969 [label="gini = 0.0000\nsamples = 1\nvalue = [ 1.  0.]", shape="box"] ;
967 -> 969 ;
970 [label="gini = 0.0000\nsamples = 25\nvalue = [ 25.   0.]", shape="box"] ;
966 -> 970 ;
971 [label="gini = 0.0000\nsamples = 1\nvalue = [ 0.  1.]", shape="box"] ;
965 -> 971 ;
972 [label="X[62] <= 45.9950\ngini = 0.132653061224\nsamples = 140", shape="box"] ;
950 -> 972 ;
973 [label="X[8] <= 60.0350\ngini = 0.100436179982\nsamples = 132", shape="box"] ;
972 -> 973 ;
974 [label="X[40] <= 793.5000\ngini = 0.48\nsamples = 5", shape="box"] ;
973 -> 974 ;
975 [label="gini = 0.0000\nsamples = 2\nvalue = [ 0.  2.]", shape="box"] ;
974 -> 975 ;
976 [label="gini = 0.0000\nsamples = 3\nvalue = [ 3.  0.]", shape="box"] ;
974 -> 976 ;
977 [label="X[36] <= 498.0000\ngini = 0.0756401512803\nsamples = 127", shape="box"] ;
973 -> 977 ;
978 [label="X[0] <= 785.5000\ngini = 0.0483573526398\nsamples = 121", shape="box"] ;
977 -> 978 ;
979 [label="X[17] <= 256.0000\ngini = 0.0330485135231\nsamples = 119", shape="box"] ;
978 -> 979 ;
980 [label="X[36] <= 339.5000\ngini = 0.0172400756144\nsamples = 115", shape="box"] ;
979 -> 980 ;
981 [label="X[30] <= 61.9650\ngini = 0.375\nsamples = 4", shape="box"] ;
980 -> 981 ;
982 [label="gini = 0.0000\nsamples = 3\nvalue = [ 3.  0.]", shape="box"] ;
981 -> 982 ;
983 [label="gini = 0.0000\nsamples = 1\nvalue = [ 0.  1.]", shape="box"] ;
981 -> 983 ;
984 [label="gini = 0.0000\nsamples = 111\nvalue = [ 111.    0.]", shape="box"] ;
980 -> 984 ;
985 [label="X[42] <= 43.1650\ngini = 0.375\nsamples = 4", shape="box"] ;
979 -> 985 ;
986 [label="gini = 0.0000\nsamples = 1\nvalue = [ 0.  1.]", shape="box"] ;
985 -> 986 ;
987 [label="gini = 0.0000\nsamples = 3\nvalue = [ 3.  0.]", shape="box"] ;
985 -> 987 ;
988 [label="X[15] <= 447.0000\ngini = 0.5\nsamples = 2", shape="box"] ;
978 -> 988 ;
989 [label="gini = 0.0000\nsamples = 1\nvalue = [ 0.  1.]", shape="box"] ;
988 -> 989 ;
990 [label="gini = 0.0000\nsamples = 1\nvalue = [ 1.  0.]", shape="box"] ;
988 -> 990 ;
991 [label="X[55] <= 431.5000\ngini = 0.444444444444\nsamples = 6", shape="box"] ;
977 -> 991 ;
992 [label="gini = 0.0000\nsamples = 4\nvalue = [ 4.  0.]", shape="box"] ;
991 -> 992 ;
993 [label="gini = 0.0000\nsamples = 2\nvalue = [ 0.  2.]", shape="box"] ;
991 -> 993 ;
994 [label="X[12] <= 712.0000\ngini = 0.46875\nsamples = 8", shape="box"] ;
972 -> 994 ;
995 [label="gini = 0.0000\nsamples = 5\nvalue = [ 5.  0.]", shape="box"] ;
994 -> 995 ;
996 [label="gini = 0.0000\nsamples = 3\nvalue = [ 0.  3.]", shape="box"] ;
994 -> 996 ;
997 [label="X[4] <= 503.0000\ngini = 0.48\nsamples = 5", shape="box"] ;
947 -> 997 ;
998 [label="gini = 0.0000\nsamples = 2\nvalue = [ 2.  0.]", shape="box"] ;
997 -> 998 ;
999 [label="gini = 0.0000\nsamples = 3\nvalue = [ 0.  3.]", shape="box"] ;
997 -> 999 ;
1000 [label="X[0] <= 724.5000\ngini = 0.497041420118\nsamples = 13", shape="box"] ;
946 -> 1000 ;
1001 [label="gini = 0.0000\nsamples = 5\nvalue = [ 5.  0.]", shape="box"] ;
1000 -> 1001 ;
1002 [label="X[8] <= 64.9300\ngini = 0.375\nsamples = 8", shape="box"] ;
1000 -> 1002 ;
1003 [label="X[37] <= 222.0000\ngini = 0.444444444444\nsamples = 3", shape="box"] ;
1002 -> 1003 ;
1004 [label="X[71] <= 393.5000\ngini = 0.5\nsamples = 2", shape="box"] ;
1003 -> 1004 ;
1005 [label="gini = 0.0000\nsamples = 1\nvalue = [ 1.  0.]", shape="box"] ;
1004 -> 1005 ;
1006 [label="gini = 0.0000\nsamples = 1\nvalue = [ 0.  1.]", shape="box"] ;
1004 -> 1006 ;
1007 [label="gini = 0.0000\nsamples = 1\nvalue = [ 1.  0.]", shape="box"] ;
1003 -> 1007 ;
1008 [label="gini = 0.0000\nsamples = 5\nvalue = [ 0.  5.]", shape="box"] ;
1002 -> 1008 ;
1009 [label="X[76] <= 422.5000\ngini = 0.408163265306\nsamples = 7", shape="box"] ;
941 -> 1009 ;
1010 [label="X[44] <= 553.0000\ngini = 0.444444444444\nsamples = 3", shape="box"] ;
1009 -> 1010 ;
1011 [label="gini = 0.5000\nsamples = 2\nvalue = [ 1.  1.]", shape="box"] ;
1010 -> 1011 ;
1012 [label="gini = 0.0000\nsamples = 1\nvalue = [ 1.  0.]", shape="box"] ;
1010 -> 1012 ;
1013 [label="gini = 0.0000\nsamples = 4\nvalue = [ 0.  4.]", shape="box"] ;
1009 -> 1013 ;
1014 [label="X[30] <= 65.1700\ngini = 0.498707268026\nsamples = 59", shape="box"] ;
940 -> 1014 ;
1015 [label="X[50] <= 68.8050\ngini = 0.375\nsamples = 24", shape="box"] ;
1014 -> 1015 ;
1016 [label="X[5] <= 32.5700\ngini = 0.408163265306\nsamples = 7", shape="box"] ;
1015 -> 1016 ;
1017 [label="X[77] <= 220.0000\ngini = 0.444444444444\nsamples = 3", shape="box"] ;
1016 -> 1017 ;
1018 [label="gini = 0.0000\nsamples = 1\nvalue = [ 0.  1.]", shape="box"] ;
1017 -> 1018 ;
1019 [label="gini = 0.5000\nsamples = 2\nvalue = [ 1.  1.]", shape="box"] ;
1017 -> 1019 ;
1020 [label="gini = 0.0000\nsamples = 4\nvalue = [ 4.  0.]", shape="box"] ;
1016 -> 1020 ;
1021 [label="X[75] <= 349.0000\ngini = 0.110726643599\nsamples = 17", shape="box"] ;
1015 -> 1021 ;
1022 [label="gini = 0.5000\nsamples = 2\nvalue = [ 1.  1.]", shape="box"] ;
1021 -> 1022 ;
1023 [label="gini = 0.0000\nsamples = 15\nvalue = [  0.  15.]", shape="box"] ;
1021 -> 1023 ;
1024 [label="X[45] <= 36.1050\ngini = 0.408163265306\nsamples = 35", shape="box"] ;
1014 -> 1024 ;
1025 [label="X[68] <= 66.0600\ngini = 0.244897959184\nsamples = 28", shape="box"] ;
1024 -> 1025 ;
1026 [label="gini = 0.0000\nsamples = 1\nvalue = [ 0.  1.]", shape="box"] ;
1025 -> 1026 ;
1027 [label="X[63] <= 226.0000\ngini = 0.197530864198\nsamples = 27", shape="box"] ;
1025 -> 1027 ;
1028 [label="X[60] <= 792.5000\ngini = 0.14201183432\nsamples = 26", shape="box"] ;
1027 -> 1028 ;
1029 [label="gini = 0.0000\nsamples = 21\nvalue = [ 21.   0.]", shape="box"] ;
1028 -> 1029 ;
1030 [label="X[31] <= 394.0000\ngini = 0.48\nsamples = 5", shape="box"] ;
1028 -> 1030 ;
1031 [label="gini = 0.0000\nsamples = 2\nvalue = [ 0.  2.]", shape="box"] ;
1030 -> 1031 ;
1032 [label="gini = 0.0000\nsamples = 3\nvalue = [ 3.  0.]", shape="box"] ;
1030 -> 1032 ;
1033 [label="gini = 0.0000\nsamples = 1\nvalue = [ 0.  1.]", shape="box"] ;
1027 -> 1033 ;
1034 [label="X[17] <= 165.0000\ngini = 0.244897959184\nsamples = 7", shape="box"] ;
1024 -> 1034 ;
1035 [label="gini = 0.0000\nsamples = 1\nvalue = [ 1.  0.]", shape="box"] ;
1034 -> 1035 ;
1036 [label="gini = 0.0000\nsamples = 6\nvalue = [ 0.  6.]", shape="box"] ;
1034 -> 1036 ;
1037 [label="X[78] <= 176.5000\ngini = 0.177371674281\nsamples = 427", shape="box"] ;
939 -> 1037 ;
1038 [label="X[35] <= 321.0000\ngini = 0.162063147189\nsamples = 416", shape="box"] ;
1037 -> 1038 ;
1039 [label="X[46] <= 459.5000\ngini = 0.362811791383\nsamples = 42", shape="box"] ;
1038 -> 1039 ;
1040 [label="X[64] <= 586.5000\ngini = 0.46875\nsamples = 8", shape="box"] ;
1039 -> 1040 ;
1041 [label="gini = 0.0000\nsamples = 2\nvalue = [ 2.  0.]", shape="box"] ;
1040 -> 1041 ;
1042 [label="X[70] <= 64.2450\ngini = 0.277777777778\nsamples = 6", shape="box"] ;
1040 -> 1042 ;
1043 [label="X[32] <= 686.0000\ngini = 0.444444444444\nsamples = 3", shape="box"] ;
1042 -> 1043 ;
1044 [label="gini = 0.0000\nsamples = 1\nvalue = [ 0.  1.]", shape="box"] ;
1043 -> 1044 ;
1045 [label="gini = 0.5000\nsamples = 2\nvalue = [ 1.  1.]", shape="box"] ;
1043 -> 1045 ;
1046 [label="gini = 0.0000\nsamples = 3\nvalue = [ 0.  3.]", shape="box"] ;
1042 -> 1046 ;
1047 [label="X[67] <= 687.0000\ngini = 0.250865051903\nsamples = 34", shape="box"] ;
1039 -> 1047 ;
1048 [label="gini = 0.0000\nsamples = 16\nvalue = [ 16.   0.]", shape="box"] ;
1047 -> 1048 ;
1049 [label="X[42] <= 44.8000\ngini = 0.401234567901\nsamples = 18", shape="box"] ;
1047 -> 1049 ;
1050 [label="gini = 0.0000\nsamples = 5\nvalue = [ 5.  0.]", shape="box"] ;
1049 -> 1050 ;
1051 [label="X[31] <= 351.0000\ngini = 0.473372781065\nsamples = 13", shape="box"] ;
1049 -> 1051 ;
1052 [label="X[39] <= 615.5000\ngini = 0.396694214876\nsamples = 11", shape="box"] ;
1051 -> 1052 ;
1053 [label="X[60] <= 851.5000\ngini = 0.32\nsamples = 10", shape="box"] ;
1052 -> 1053 ;
1054 [label="gini = 0.0000\nsamples = 6\nvalue = [ 6.  0.]", shape="box"] ;
1053 -> 1054 ;
1055 [label="X[36] <= 382.5000\ngini = 0.5\nsamples = 4", shape="box"] ;
1053 -> 1055 ;
1056 [label="gini = 0.0000\nsamples = 1\nvalue = [ 0.  1.]", shape="box"] ;
1055 -> 1056 ;
1057 [label="X[43] <= 235.0000\ngini = 0.444444444444\nsamples = 3", shape="box"] ;
1055 -> 1057 ;
1058 [label="gini = 0.0000\nsamples = 1\nvalue = [ 1.  0.]", shape="box"] ;
1057 -> 1058 ;
1059 [label="gini = 0.5000\nsamples = 2\nvalue = [ 1.  1.]", shape="box"] ;
1057 -> 1059 ;
1060 [label="gini = 0.0000\nsamples = 1\nvalue = [ 0.  1.]", shape="box"] ;
1052 -> 1060 ;
1061 [label="gini = 0.0000\nsamples = 2\nvalue = [ 0.  2.]", shape="box"] ;
1051 -> 1061 ;
1062 [label="X[9] <= 2112.5000\ngini = 0.133961508765\nsamples = 374", shape="box"] ;
1038 -> 1062 ;
1063 [label="X[18] <= 152.5000\ngini = 0.0558197912538\nsamples = 174", shape="box"] ;
1062 -> 1063 ;
1064 [label="X[65] <= 27.8600\ngini = 0.0454299621417\nsamples = 172", shape="box"] ;
1063 -> 1064 ;
1065 [label="X[28] <= 65.2450\ngini = 0.444444444444\nsamples = 3", shape="box"] ;
1064 -> 1065 ;
1066 [label="gini = 0.0000\nsamples = 1\nvalue = [ 1.  0.]", shape="box"] ;
1065 -> 1066 ;
1067 [label="gini = 0.5000\nsamples = 2\nvalue = [ 1.  1.]", shape="box"] ;
1065 -> 1067 ;
1068 [label="X[73] <= 1374.0000\ngini = 0.0348727285459\nsamples = 169", shape="box"] ;
1064 -> 1068 ;
1069 [label="X[19] <= 513.0000\ngini = 0.0238060676441\nsamples = 166", shape="box"] ;
1068 -> 1069 ;
1070 [label="X[62] <= 42.2250\ngini = 0.165289256198\nsamples = 22", shape="box"] ;
1069 -> 1070 ;
1071 [label="gini = 0.0000\nsamples = 18\nvalue = [ 18.   0.]", shape="box"] ;
1070 -> 1071 ;
1072 [label="X[20] <= 679.5000\ngini = 0.5\nsamples = 4", shape="box"] ;
1070 -> 1072 ;
1073 [label="gini = 0.0000\nsamples = 2\nvalue = [ 2.  0.]", shape="box"] ;
1072 -> 1073 ;
1074 [label="gini = 0.0000\nsamples = 2\nvalue = [ 0.  2.]", shape="box"] ;
1072 -> 1074 ;
1075 [label="gini = 0.0000\nsamples = 144\nvalue = [ 144.    0.]", shape="box"] ;
1069 -> 1075 ;
1076 [label="X[6] <= 449.0000\ngini = 0.444444444444\nsamples = 3", shape="box"] ;
1068 -> 1076 ;
1077 [label="gini = 0.0000\nsamples = 2\nvalue = [ 2.  0.]", shape="box"] ;
1076 -> 1077 ;
1078 [label="gini = 0.0000\nsamples = 1\nvalue = [ 0.  1.]", shape="box"] ;
1076 -> 1078 ;
1079 [label="X[42] <= 46.4350\ngini = 0.5\nsamples = 2", shape="box"] ;
1063 -> 1079 ;
1080 [label="gini = 0.0000\nsamples = 1\nvalue = [ 1.  0.]", shape="box"] ;
1079 -> 1080 ;
1081 [label="gini = 0.0000\nsamples = 1\nvalue = [ 0.  1.]", shape="box"] ;
1079 -> 1081 ;
1082 [label="X[70] <= 65.4900\ngini = 0.1958\nsamples = 200", shape="box"] ;
1062 -> 1082 ;
1083 [label="X[51] <= 316.5000\ngini = 0.0688775510204\nsamples = 84", shape="box"] ;
1082 -> 1083 ;
1084 [label="X[37] <= 189.0000\ngini = 0.5\nsamples = 2", shape="box"] ;
1083 -> 1084 ;
1085 [label="gini = 0.0000\nsamples = 1\nvalue = [ 0.  1.]", shape="box"] ;
1084 -> 1085 ;
1086 [label="gini = 0.0000\nsamples = 1\nvalue = [ 1.  0.]", shape="box"] ;
1084 -> 1086 ;
1087 [label="X[41] <= 1833.0000\ngini = 0.0475907198096\nsamples = 82", shape="box"] ;
1083 -> 1087 ;
1088 [label="X[35] <= 385.5000\ngini = 0.444444444444\nsamples = 3", shape="box"] ;
1087 -> 1088 ;
1089 [label="gini = 0.0000\nsamples = 1\nvalue = [ 0.  1.]", shape="box"] ;
1088 -> 1089 ;
1090 [label="gini = 0.0000\nsamples = 2\nvalue = [ 2.  0.]", shape="box"] ;
1088 -> 1090 ;
1091 [label="X[50] <= 66.8450\ngini = 0.0249959942317\nsamples = 79", shape="box"] ;
1087 -> 1091 ;
1092 [label="X[18] <= 121.0000\ngini = 0.444444444444\nsamples = 3", shape="box"] ;
1091 -> 1092 ;
1093 [label="gini = 0.0000\nsamples = 2\nvalue = [ 2.  0.]", shape="box"] ;
1092 -> 1093 ;
1094 [label="gini = 0.0000\nsamples = 1\nvalue = [ 0.  1.]", shape="box"] ;
1092 -> 1094 ;
1095 [label="gini = 0.0000\nsamples = 76\nvalue = [ 76.   0.]", shape="box"] ;
1091 -> 1095 ;
1096 [label="X[67] <= 605.0000\ngini = 0.273929845422\nsamples = 116", shape="box"] ;
1082 -> 1096 ;
1097 [label="X[19] <= 567.0000\ngini = 0.465373961219\nsamples = 19", shape="box"] ;
1096 -> 1097 ;
1098 [label="X[67] <= 594.0000\ngini = 0.165289256198\nsamples = 11", shape="box"] ;
1097 -> 1098 ;
1099 [label="gini = 0.0000\nsamples = 10\nvalue = [ 10.   0.]", shape="box"] ;
1098 -> 1099 ;
1100 [label="gini = 0.0000\nsamples = 1\nvalue = [ 0.  1.]", shape="box"] ;
